export const data_layers = [{"name": "ddqn_1", "layers": '[{"name": "fc1", "type": "Linear", "weight": [[-0.0771712064743042, 0.11314190924167633, -0.0794004499912262, -0.13681566715240479, 0.12452919781208038, -0.18306155502796173, -0.10521019250154495, -0.13487759232521057, -0.00820167362689972, -0.14111632108688354], [0.10732154548168182, -0.027348503470420837, -0.023534998297691345, -0.0144939124584198, -0.18749308586120605, -0.17368647456169128, 0.07397310435771942, -0.19462807476520538, 0.09663431346416473, -0.1501418948173523], [0.11016249656677246, 0.16613633930683136, -0.02581913024187088, 0.14049558341503143, -0.1630113273859024, 0.14176315069198608, 0.10529638081789017, -0.015029500238597393, -0.016911976039409637, 0.05655255168676376], [0.0010630459291860461, 0.0718238428235054, 0.055300116539001465, -0.13394750654697418, -0.19072183966636658, 0.06422073394060135, -0.0014593420783057809, 0.1521184891462326, 0.05106453597545624, 0.11363627016544342], [0.042477741837501526, -0.008086287416517735, 0.17991812527179718, 0.06665028631687164, -0.04636945575475693, 0.19857154786586761, -0.17176255583763123, -0.04726183041930199, -0.09660428017377853, 0.12692487239837646], [0.19896654784679413, -0.06514234095811844, -0.13561506569385529, -0.09350524842739105, -0.09380768239498138, -0.04751893877983093, 0.11071484535932541, -0.1426415592432022, 0.12737977504730225, 0.023335151374340057], [0.045676298439502716, -0.19029271602630615, 0.07668690383434296, 0.19615620374679565, -0.03713371977210045, -0.04761476814746857, 0.17292508482933044, -0.04167003929615021, 0.04172949865460396, 0.1556977778673172], [0.15802522003650665, -0.03540554642677307, 0.16959989070892334, 0.1949000358581543, 0.16436371207237244, -0.09410924464464188, 0.18443793058395386, -0.04431995376944542, 0.09410431981086731, -0.14525508880615234], [0.11470858007669449, -0.1699654906988144, -0.007467327639460564, 0.15432797372341156, -0.18703791499137878, 0.023785049095749855, -0.006044548470526934, 0.09501650184392929, -0.11867287755012512, -0.02542189508676529], [-0.011245776899158955, 0.19639502465724945, -0.04269741103053093, 0.018473871052265167, 0.16132909059524536, 0.14245715737342834, -0.10830072313547134, -0.07470982521772385, -0.152131125330925, -0.11128591746091843], [-0.07372927665710449, -0.17387786507606506, -0.0893164724111557, -0.04188869893550873, -0.1280328333377838, -0.09730479121208191, -0.0336291640996933, -0.2041322886943817, 0.14895187318325043, -0.0709843635559082], [0.06880899518728256, -0.11943462491035461, -0.13558973371982574, 0.050355780869722366, 0.081110879778862, 0.12387370318174362, 0.1694989800453186, 0.1865200400352478, 0.028101660311222076, 0.13526798784732819], [0.08542056381702423, -0.11280316114425659, -0.14645668864250183, -0.0536496639251709, -0.08358246833086014, -0.13710588216781616, -0.0810568630695343, 0.11757628619670868, -0.09410526603460312, 0.08632324635982513], [-0.09282121062278748, -0.0033684521913528442, 0.19812248647212982, -0.07370366156101227, -0.11198032647371292, -0.09287766367197037, 0.0337693989276886, -0.0494086891412735, -0.01751488447189331, -0.13040383160114288], [-0.1902095228433609, 0.06966942548751831, 0.1413118541240692, 0.19029857218265533, 0.04648261144757271, -0.15289926528930664, -0.08005951344966888, 0.11361522972583771, 0.06455599516630173, 0.20103788375854492], [0.12705661356449127, -0.15448631346225739, 0.01660206727683544, -0.025917403399944305, 0.09846407175064087, -0.1877134144306183, -0.0028264408465474844, 0.1421518325805664, 0.06289441138505936, -0.08891270309686661], [-0.10634510964155197, -0.13291633129119873, -0.11771394312381744, -0.18441076576709747, -0.13073717057704926, 0.14442095160484314, 0.14176221191883087, 0.1771160215139389, 0.03501955419778824, 0.06793727725744247], [0.004008441232144833, 0.20106683671474457, -0.21064001321792603, 0.019072970375418663, 0.20204488933086395, -0.02957800030708313, -0.08806055784225464, -0.04258601740002632, 0.1099933609366417, 0.14680251479148865], [-0.026885997503995895, -0.06563626229763031, 0.1412954032421112, 0.048777803778648376, -0.09797876328229904, -0.16092030704021454, -0.02691824361681938, -0.19159065186977386, -0.16813403367996216, 0.1039326936006546], [0.15463590621948242, 0.04211023077368736, 0.015578804537653923, -0.17710481584072113, 0.0595066174864769, -0.06065010279417038, 0.000123692792840302, -0.08799239248037338, -0.05559862032532692, -0.06037179008126259], [-0.15272851288318634, 0.11028600484132767, 0.19252300262451172, -0.08554095029830933, 0.03558312729001045, -0.148325577378273, 0.1510619968175888, -0.005656897556036711, 0.0644650012254715, 0.09647324681282043], [-0.018440455198287964, -0.1508355736732483, -0.06363354623317719, -0.10456570237874985, 0.03723569214344025, 0.018149957060813904, 0.037149518728256226, 0.03513123095035553, 0.14205478131771088, -0.016848891973495483], [0.15783998370170593, 0.10623571276664734, -0.13368119299411774, -0.18268270790576935, 0.1034495085477829, -0.02292506955564022, -0.15481773018836975, -0.20929595828056335, 0.10809654742479324, 0.1495658904314041], [0.13344880938529968, -0.13561886548995972, 0.12542352080345154, 0.02107776142656803, -0.02774452418088913, 0.08858026564121246, 0.10243655741214752, 0.08633950352668762, 0.03505338355898857, 0.05054905638098717], [-0.18851959705352783, 0.1281745582818985, 0.0334354043006897, -0.14849942922592163, -0.16677172482013702, -0.14711615443229675, 0.047353312373161316, -0.1147310882806778, -0.0235537588596344, 0.05157656967639923], [0.07739673554897308, 0.04306623339653015, 0.20260633528232574, -0.04515700787305832, 0.04541410133242607, -0.039116956293582916, 0.1619497835636139, 0.035723499953746796, -0.1289472132921219, -0.17583779990673065], [0.048605021089315414, -0.1828964501619339, 0.018524596467614174, 0.0493769571185112, 0.13735303282737732, 0.009598320350050926, -0.05426501855254173, 0.14522281289100647, -0.20480714738368988, 0.10868271440267563], [0.1197863295674324, -0.09578458219766617, 0.17160874605178833, -0.18944530189037323, 0.07188756763935089, -0.01848955638706684, 0.21172630786895752, 0.1852593570947647, 0.008395286276936531, -0.029940368607640266], [0.10274277627468109, -0.07182905077934265, -0.0909736230969429, -0.16063393652439117, -0.19834621250629425, -0.10920863598585129, -0.025524631142616272, -0.08301234245300293, 0.20333530008792877, 0.05363686382770538], [0.15845303237438202, -0.06465496122837067, 0.10324762016534805, 0.12802758812904358, 0.1715231090784073, -0.030230529606342316, -0.17306867241859436, 0.022311152890324593, 0.16680550575256348, 0.046789783984422684], [0.12062785774469376, 0.04806927219033241, 0.07470527291297913, -0.16125287115573883, -0.12113664299249649, 0.11515268683433533, 0.01599317230284214, 0.15982723236083984, 0.1686951220035553, -0.06554535031318665], [0.05191216990351677, -0.050654567778110504, 0.020438820123672485, 0.08057156205177307, -0.17104969918727875, 0.15280355513095856, 0.14189937710762024, -0.01087118685245514, -0.07234266400337219, -0.1498703807592392], [0.052831001579761505, -0.08174054324626923, 0.10948110371828079, -0.1409759521484375, 0.14483150839805603, -0.09159912168979645, 0.10125528275966644, 0.06478326767683029, -0.1765553206205368, -0.10549076646566391], [-0.14203481376171112, -0.16537566483020782, -0.008664087392389774, 0.09877140820026398, -0.09319751709699631, 0.1733895093202591, 0.13121353089809418, 0.2012416422367096, 0.13666142523288727, -0.05570201575756073], [-0.1493838131427765, -0.09541500359773636, 0.1612432450056076, 0.08938488364219666, 0.08882496505975723, -0.16044560074806213, 0.07459023594856262, 0.09252259880304337, -0.1753470003604889, -0.11353105306625366], [0.15066836774349213, 0.13050402700901031, 0.08257743716239929, -0.005345947574824095, -0.12310510873794556, -0.15238802134990692, -0.15393751859664917, 0.15615235269069672, -0.19995076954364777, -0.10158419609069824], [0.14458660781383514, 0.024121463298797607, -0.18791329860687256, 0.027609307318925858, -0.21339184045791626, 0.13561736047267914, -0.03025502897799015, 0.12214520573616028, 0.07721253484487534, 0.17102696001529694], [0.04801396653056145, 0.049876563251018524, 0.04962506517767906, 0.054278094321489334, -0.06546758115291595, -0.15933139622211456, 0.037835508584976196, 0.014216415584087372, -0.001021085656248033, 0.06594222038984299], [-0.041261956095695496, -0.013716861605644226, -0.19364513456821442, 0.036946460604667664, 0.03665854036808014, -0.12293320149183273, 0.11515001952648163, -0.0806790292263031, -0.10930649936199188, -0.046969935297966], [-0.16276121139526367, -0.2056780457496643, -0.18426227569580078, -0.0815894603729248, -0.03978036344051361, 0.17273588478565216, -0.1303984522819519, 0.1531035453081131, -0.15929675102233887, -0.07743056118488312], [0.027648096904158592, -0.17029984295368195, 0.03384103998541832, -0.08050546795129776, -0.01729048229753971, 0.18978804349899292, -0.07131058722734451, 0.17254741489887238, -0.1375250220298767, -0.07857487350702286], [-0.07171659171581268, -0.05760493874549866, -0.15463702380657196, -0.10856161266565323, -0.018589496612548828, 0.02176070213317871, 0.173701211810112, 0.05312018096446991, -0.07487159967422485, -0.11786655336618423], [0.010146471671760082, 0.11001785844564438, -0.05810815468430519, -0.03427617996931076, 0.13390211760997772, 0.20174099504947662, -0.19330547749996185, -0.13924361765384674, -0.02659830078482628, 0.18574018776416779], [0.053429435938596725, -0.0034254586789757013, -0.1892496794462204, -0.08880618214607239, 0.03926369547843933, -0.07529795914888382, 0.20204435288906097, -0.038274817168712616, 0.08571431040763855, -0.07268764078617096], [-0.03722643852233887, 0.10205550491809845, 0.10408838093280792, -0.10427982360124588, -0.1272887885570526, -0.03709918260574341, 0.09931142628192902, -0.17113053798675537, 0.11863391101360321, -0.18118444085121155], [0.038978710770606995, 0.07246854901313782, -0.10456389933824539, 0.12490149587392807, -0.10166618973016739, -0.13910016417503357, 0.167536661028862, -0.0860249325633049, 0.20140251517295837, 0.07151004672050476], [-0.19139160215854645, 0.0008528874604962766, 0.17920076847076416, 0.04452699422836304, 0.10431669652462006, 0.15446977317333221, 0.08322474360466003, 0.009842549450695515, -0.09555431455373764, -0.1420717090368271], [0.08267340064048767, 0.1678391546010971, -0.07558043301105499, -0.0765303447842598, -0.010214597918093204, 0.10467997938394547, 0.0693817287683487, 0.007298091426491737, -0.04297443479299545, 0.149006649851799], [0.043467555195093155, -0.16995377838611603, 0.16876736283302307, 0.13733817636966705, 0.05194985494017601, -0.07015921920537949, -0.1246216744184494, -0.05984095484018326, -0.1422584056854248, 0.13238415122032166], [0.02036169171333313, -0.0894685685634613, -0.11613535135984421, 0.017948731780052185, 0.03365446627140045, 0.13402579724788666, -0.016094297170639038, -0.15382933616638184, 0.1473071128129959, -0.1869129240512848], [-0.09594175219535828, -0.11670707911252975, 0.046762045472860336, 0.03238067775964737, 0.1733439862728119, 0.0663531944155693, 0.2021450698375702, 0.10554031282663345, -0.010763727128505707, 0.01206628791987896], [-0.16136063635349274, 0.10660293698310852, 0.10741538554430008, 0.15702484548091888, 0.15108273923397064, 0.16776251792907715, 0.1950901299715042, 0.1230621263384819, -0.11648544669151306, -0.07257206737995148], [-0.09047222137451172, -0.1879001408815384, -0.01554159540683031, -0.06768765300512314, 0.1790027618408203, 0.11493577063083649, -0.10479360073804855, 0.04992160573601723, -0.2074842005968094, 0.12063205242156982], [-0.12512029707431793, -0.16892600059509277, -0.01496602687984705, -0.002496631583198905, -0.18976391851902008, 0.058873459696769714, -0.041739847511053085, 0.18593285977840424, -0.06689098477363586, -0.08069036900997162], [0.11586840450763702, 0.07086388021707535, 0.17544767260551453, 0.17566822469234467, -0.004974524024873972, -0.12072869390249252, -0.16670742630958557, -0.043051816523075104, 0.17708441615104675, 0.1730523258447647], [-0.17712533473968506, -0.17849309742450714, 0.05742231383919716, -0.08188997209072113, -0.03829372301697731, -0.14058025181293488, 0.19142471253871918, 0.193637877702713, -0.1263381987810135, -0.097687728703022], [-0.004225538112223148, 0.06850296258926392, -0.12017551064491272, -0.10095680505037308, 0.017014246433973312, 0.021317848935723305, 0.16102738678455353, 0.09902242571115494, -0.03366250544786453, -0.067451611161232], [0.20085790753364563, -0.21509449183940887, -0.027192503213882446, -0.12355651706457138, 0.13310474157333374, -0.06046649068593979, -0.0953645333647728, 0.10022146254777908, 0.09015960246324539, 0.130507230758667], [0.19436681270599365, 0.18770743906497955, 0.14336629211902618, 0.14002534747123718, -0.09419514983892441, 0.11368200927972794, -0.08298584818840027, -0.08662234246730804, -0.03963472321629524, -0.12625019252300262], [0.11269077658653259, 0.02206566371023655, 0.1305140107870102, 0.038772545754909515, 0.0853610411286354, 0.18500004708766937, 0.050201546400785446, 0.18032878637313843, 0.14020299911499023, 0.008242495357990265], [-0.03805599361658096, 0.10323867946863174, 0.10679373145103455, -0.0844365656375885, -0.13328056037425995, 0.03718423843383789, -0.09218859672546387, -0.045100752264261246, 0.1787305772304535, 0.11254696547985077], [0.07795169204473495, -0.17140322923660278, 0.04228624328970909, 0.07462697476148605, 0.033544909209012985, -0.1486213058233261, 0.19107775390148163, -0.04307803884148598, 0.06574944406747818, -0.023518696427345276], [0.0657757893204689, -0.049738362431526184, -0.1944309026002884, -0.08132142573595047, 0.173089861869812, 0.1721888780593872, -0.07218672335147858, 0.17099405825138092, 0.12332130968570709, -0.09779626876115799], [-0.04061518982052803, -0.1607305109500885, -0.14123456180095673, 0.052368003875017166, 0.1008303165435791, 0.1587871015071869, 0.112556092441082, 0.1919584423303604, 0.13040661811828613, 0.07790753990411758], [-0.024076828733086586, -0.10001826286315918, -0.12119188159704208, 0.08347415179014206, 0.018523836508393288, 0.1320004016160965, 0.011320077814161777, -0.01569291017949581, -0.006141541991382837, 0.1704101413488388], [-0.12430433183908463, -0.09123007208108902, 0.15187261998653412, -0.1114029809832573, -0.1940213441848755, -0.0427517294883728, -0.09127934277057648, -0.1816926896572113, 0.16096927225589752, -0.15707772970199585], [0.026343850418925285, 0.08845110237598419, -0.025386663153767586, 0.05390447750687599, 0.12182018160820007, -0.0018663605442270637, 0.12737031280994415, 0.07717988640069962, 0.19643534719944, -0.16535049676895142], [-0.19140014052391052, -0.045887477695941925, -0.1846819967031479, 0.032558947801589966, -0.18689365684986115, 0.12204153090715408, 0.17416806519031525, 0.11671064794063568, -0.06345026940107346, 0.15487901866436005], [0.1498241126537323, -0.040128257125616074, 0.1635875552892685, 0.008206137455999851, -0.12873627245426178, -0.013960014097392559, -0.005583632737398148, 0.044099099934101105, 0.010378644801676273, 0.1989414244890213], [-0.0005571708315983415, 0.184055894613266, -0.07635479420423508, 0.07837139070034027, -0.048657432198524475, -0.17347107827663422, -0.19785714149475098, 0.11498187482357025, 0.1661531776189804, 0.15115047991275787], [0.04806837439537048, -0.06775786727666855, 0.1737934798002243, 0.17301355302333832, 0.07029811292886734, -0.06887239962816238, -0.1146712526679039, 0.053804755210876465, -0.20017117261886597, -0.11740058660507202], [-0.18300080299377441, 0.11426986008882523, -0.01692873425781727, -0.023541102185845375, 0.10499262064695358, -0.17178289592266083, -0.031793974339962006, -0.13694781064987183, 0.15431618690490723, 0.022675396874547005], [-0.08061745762825012, -0.13818968832492828, -0.03744557127356529, -0.01793721690773964, 0.07835691422224045, 0.14776965975761414, 0.17558036744594574, -0.11033277213573456, 0.10484001785516739, 0.007690352387726307], [0.16889820992946625, 0.002669200301170349, -0.03721240162849426, -0.02120441198348999, 0.09842674434185028, -0.11696770787239075, -0.0758461207151413, -0.1382438838481903, 0.035054609179496765, -0.1789683848619461], [0.1859121024608612, -0.09178135544061661, 0.0015879672719165683, -0.0206486564129591, 0.05769900605082512, 0.0055255466140806675, 0.17128784954547882, -0.002456100657582283, -0.15667156875133514, -0.06657595187425613], [-0.16228371858596802, -0.10827051848173141, -0.0802365317940712, 0.06639008969068527, 0.09991180896759033, -0.1968058943748474, 0.17269505560398102, 0.16767005622386932, 0.1452326476573944, -0.02887379564344883], [-0.03442994877696037, -0.03788190707564354, -0.059971172362565994, 0.18004180490970612, -0.18766333162784576, 0.14557869732379913, 0.21372640132904053, -0.05302191898226738, -0.028833627700805664, 0.13621076941490173], [0.07877381145954132, 0.04848484694957733, -0.10760532319545746, -0.021325618028640747, -0.04530149698257446, -0.04516388475894928, -0.08863203227519989, 0.0024505406618118286, -0.09658759832382202, -0.03563429415225983], [0.08260495215654373, 0.11008329689502716, 0.14307096600532532, 0.1670008897781372, 0.10673325508832932, 0.130777969956398, -0.17608191072940826, 0.05142480507493019, -0.05348403379321098, 0.14231105148792267], [0.13955359160900116, 0.13809433579444885, -0.10726765543222427, -0.14142082631587982, 0.11220714449882507, -0.14503619074821472, -0.1291472464799881, -0.056451112031936646, -0.055014390498399734, -0.0810948833823204], [0.0761738270521164, 0.023379836231470108, 0.0069985962472856045, -0.004959572106599808, -0.013236227445304394, 0.19510236382484436, 0.19340279698371887, -0.1671607941389084, 0.07303685694932938, 0.11364682763814926], [-0.1855597198009491, -0.1689853072166443, 0.18278779089450836, 0.05003994330763817, -0.0758943110704422, 0.19804500043392181, -0.08928599208593369, -0.06768789887428284, -0.16530901193618774, 0.107976034283638], [0.06959374248981476, -0.08780614286661148, 0.13948805630207062, -0.11461572349071503, 0.04075869917869568, -0.1646173745393753, 0.14257855713367462, 0.06098358333110809, -0.16457678377628326, -0.15195658802986145], [-0.14863593876361847, -0.10450845956802368, -0.09752001613378525, -0.13522839546203613, 0.19477145373821259, 0.10200169682502747, 0.07782837748527527, -0.10063780844211578, 0.12193136662244797, 0.10436877608299255], [0.03424932435154915, 0.06367305666208267, -0.039503175765275955, -0.08175614476203918, -0.20239409804344177, 0.12502188980579376, -0.13940519094467163, -0.1223963275551796, 0.13949379324913025, 0.15635737776756287], [-0.17005228996276855, 0.10733188688755035, 0.2015027552843094, 0.07986320555210114, -0.09252849221229553, 0.10346109420061111, 0.05106847360730171, -0.05576954409480095, 0.1847948580980301, -0.052144069224596024], [0.0864105075597763, -0.2003864198923111, -0.18726980686187744, 0.166277214884758, -0.14686088263988495, -0.032134637236595154, 0.041019126772880554, -0.06857004761695862, 0.20696906745433807, -0.06742978096008301], [0.19166305661201477, 0.08166012167930603, -0.07218417525291443, 0.003155792597681284, 0.18240760266780853, 0.018623240292072296, 0.1127629354596138, -0.00222367444075644, 0.1703713983297348, -0.21442493796348572], [-0.15022537112236023, -0.07675623148679733, 0.17685703933238983, 0.004912733566015959, 0.035086631774902344, 0.16815286874771118, 0.09850402921438217, -0.1929132491350174, 0.1675662249326706, -0.016094379127025604], [-0.11692019551992416, 0.20636975765228271, -0.025182675570249557, 0.025654297322034836, -0.06966628134250641, -0.20885439217090607, 0.05101180821657181, 0.1573943793773651, -0.13193729519844055, -0.10051427036523819], [-0.08019030094146729, 0.16227658092975616, -0.16443072259426117, 0.028734371066093445, -0.0752524882555008, -0.07389721274375916, 0.03783869743347168, -0.18860362470149994, 0.18707267940044403, -0.14140737056732178], [0.05572300776839256, -0.0685088038444519, 0.03316314518451691, 0.18577498197555542, 0.05175011605024338, 0.07230322062969208, -0.1678834855556488, 0.12383593618869781, 0.10455111414194107, 0.10498978942632675], [-0.13487640023231506, 0.0779063031077385, 0.21432113647460938, -0.0031329928897321224, 0.0014697376172989607, 0.08651886135339737, 0.05917168781161308, 0.12282609939575195, -0.02474968135356903, 0.056934062391519547], [-0.0035416416358202696, -0.07939387857913971, -0.05736226588487625, 0.050181228667497635, -0.07636594027280807, -0.012371504679322243, 0.003837440861389041, 0.03591010719537735, -0.007155463565140963, -0.028230782598257065], [-0.14408989250659943, -0.09175145626068115, -0.09327708929777145, 0.12557825446128845, -0.18182000517845154, -0.031183646991848946, 0.21099890768527985, 0.06250811368227005, -0.084355928003788, -0.005896456073969603], [-0.08978379517793655, 0.024994278326630592, 0.04076472297310829, 0.17241525650024414, -0.042530570179224014, -0.01257078442722559, -0.12640763819217682, 0.1881938874721527, -0.07682168483734131, -0.1487797647714615], [0.09946884214878082, -0.07382437586784363, 0.19135355949401855, 0.04776233434677124, 0.130431666970253, -0.20193658769130707, 0.10599243640899658, 0.08921856433153152, -0.051577333360910416, -0.006798775400966406], [0.09815450757741928, 0.13072574138641357, 0.1919984519481659, 0.14366254210472107, 0.19209930300712585, 0.03384488448500633, -0.20695295929908752, -0.13777117431163788, -0.05657098814845085, -0.07829415798187256], [-0.16684378683567047, 0.027927065268158913, -0.11677797138690948, 0.1538873314857483, -0.1360097974538803, 0.04700249806046486, 0.18632523715496063, 0.1137584000825882, 0.2021317034959793, 0.10410340875387192], [0.166898712515831, 0.05926055833697319, 0.18512561917304993, 0.061595749109983444, 0.05820118263363838, -0.03742038458585739, -0.17039307951927185, -0.06013340875506401, 0.17423667013645172, -0.14793676137924194], [-0.1232878565788269, -0.08142685890197754, -0.14380358159542084, 0.1887700855731964, 0.1639833003282547, 0.024035759270191193, -0.2018071860074997, 0.0050085848197340965, 0.05997799336910248, -0.04166677966713905], [0.14203692972660065, -0.03523669019341469, 0.022231141105294228, 0.07690444588661194, 0.04191097244620323, 0.06675446033477783, -0.03261075168848038, 0.03359951078891754, -0.03896677866578102, -0.08495285362005234], [-0.1979164332151413, 0.05833069980144501, -0.19093181192874908, 0.1022738665342331, -0.06695728003978729, 0.1515989452600479, -0.044119104743003845, -0.20436696708202362, 0.1655406802892685, -0.18302027881145477], [0.05293773114681244, 0.06973914802074432, -0.1514812707901001, 0.1372525542974472, -0.018658915534615517, -0.03289514034986496, 0.01978372037410736, -0.05496862903237343, -0.1685766726732254, -0.0868484154343605], [0.10686425864696503, 0.129172220826149, -0.12955065071582794, 0.07719509303569794, 0.06873896718025208, -0.09825194627046585, 0.018282225355505943, 0.10358098894357681, 0.17931409180164337, 0.06740646064281464], [0.0596790686249733, 0.05828692764043808, 0.10459352284669876, 0.14826533198356628, 0.15230871737003326, 0.13314250111579895, 0.10375973582267761, 0.03523854911327362, 0.17008963227272034, -0.1194048747420311], [-0.18983833491802216, -0.10882176458835602, 0.06020332872867584, -0.14870935678482056, -0.08167780935764313, -0.009624630212783813, 0.030638858675956726, -0.002021387219429016, 0.08069507777690887, 0.06702016294002533], [-0.21218585968017578, 0.028899526223540306, 0.09804756194353104, 0.15836013853549957, -0.04054604470729828, 0.13006114959716797, 0.07211903482675552, 0.0727778822183609, -0.1524207592010498, 0.16672812402248383], [0.1936824470758438, -0.1113981083035469, -0.06916946172714233, -0.024665653705596924, 0.027793169021606445, 0.19178448617458344, 0.0023965537548065186, -0.14741462469100952, -0.10723672062158585, -0.17273405194282532], [-0.12805688381195068, 0.12776948511600494, -0.17346814274787903, 0.06041053682565689, -0.11269453167915344, 0.0895366370677948, 0.03687551990151405, -0.16396333277225494, -0.16949091851711273, -0.002591310068964958], [0.15205460786819458, 0.19198928773403168, 0.12636297941207886, 0.015247078612446785, 0.11665219813585281, -0.06924041360616684, 0.18497222661972046, -0.1035011038184166, 0.02191254124045372, -0.17677104473114014], [0.020153071731328964, 0.17364567518234253, 0.1439824402332306, 0.03155026584863663, 0.17556601762771606, -0.06426790356636047, 0.1412685662508011, 0.09894999861717224, 0.0442558228969574, 0.12076296657323837], [-0.19180840253829956, 0.12256469577550888, -0.13538283109664917, 0.11477234214544296, 0.037652019411325455, -0.21098358929157257, -0.2046460211277008, 0.04764930158853531, -0.1951397806406021, 0.05222499743103981], [-0.18367773294448853, -0.02655693143606186, 0.15307043492794037, -0.15591277182102203, -0.09066852182149887, 0.14649735391139984, 0.13300907611846924, -0.209802508354187, 0.10498441010713577, 0.18713606894016266], [-0.15672504901885986, -0.10944997519254684, -0.059853121638298035, -0.19559577107429504, 0.1616009622812271, -0.12270098924636841, 0.0935913473367691, -0.041694894433021545, 0.13812385499477386, -0.06891413033008575], [0.03638099506497383, 0.15395517647266388, -0.04482259601354599, -0.0034780390560626984, 0.14474554359912872, -0.0007120271911844611, 0.15995457768440247, -0.20363883674144745, 0.19860877096652985, 0.1779613196849823], [-0.16174057126045227, 0.18600772321224213, 0.13103653490543365, 0.10406557470560074, -0.06950043141841888, -0.16120631992816925, 0.16316212713718414, 0.1890699416399002, -0.16960810124874115, 0.16203726828098297], [0.064690500497818, -0.08508270233869553, -0.014524765312671661, 0.1827387660741806, 0.1136588528752327, 0.177287295460701, 0.17803418636322021, -0.16069632768630981, 0.08419917523860931, -0.09962036460638046], [-0.015132245607674122, 0.089754119515419, 0.16562765836715698, -0.14335250854492188, -0.1426643282175064, -0.013214847072958946, 0.018573077395558357, 0.04366500303149223, 0.10622607916593552, 0.0919274315237999], [-0.12171129137277603, -0.15462949872016907, 0.06323114037513733, 0.06686925888061523, -0.20623843371868134, 0.12619322538375854, 0.05943858623504639, 0.17047132551670074, 0.08591677993535995, -0.09839283674955368], [0.17939169704914093, -0.07882840186357498, 0.06168147921562195, -0.0718812495470047, 0.1851380467414856, -0.1557508111000061, 0.18038909137248993, 0.14744113385677338, 0.08969525992870331, 0.031602803617715836], [-0.056330736726522446, -0.0774080827832222, -0.18756747245788574, -0.014628673903644085, -0.03147308900952339, 0.17432424426078796, 0.06797169893980026, -0.053533885627985, -0.05306783318519592, 0.08137554675340652], [-0.08300691843032837, -0.19039109349250793, 0.03500784561038017, 0.1650611013174057, 0.16718724370002747, -0.1970495879650116, -0.010376770049333572, 0.07549077272415161, 0.1285155564546585, 0.10575425624847412], [-0.11595318466424942, 0.17969469726085663, 0.10635150223970413, 0.13111566007137299, 0.20232118666172028, 0.19971169531345367, -0.1610177457332611, 0.20711179077625275, -0.0727861151099205, 0.11751982569694519], [-0.12673667073249817, 0.19120201468467712, 0.06391726434230804, 0.09609275311231613, -0.0006563881761394441, -0.10339325666427612, 0.0673753023147583, 0.06563390791416168, 0.1306913197040558, -0.13382558524608612], [-0.10409121215343475, 0.06597818434238434, -0.2006559818983078, -0.03535522520542145, -0.15699198842048645, -0.07626135647296906, 0.11176536977291107, -0.15402314066886902, 0.14402733743190765, 0.10980097949504852], [0.1879245936870575, 0.16634702682495117, 0.055163536220788956, -0.2044924646615982, 0.18719574809074402, -0.07741589099168777, 0.024682359769940376, -0.16789056360721588, -0.15018604695796967, 0.16125962138175964], [-0.04154013469815254, -0.1030513122677803, -0.0011909533059224486, 0.029388589784502983, 0.027477703988552094, -0.03527762368321419, 0.03637680411338806, -0.0449330136179924, 0.1073112040758133, 0.09950678050518036]], "bias": [0.009999999776482582, 0.009999999776482582, -0.004474935121834278, 0.00992549117654562, -0.0006713763577863574, 0.010480226948857307, 0.007764425594359636, 0.013349529355764389, -0.005002928897738457, 0.0013535595498979092, 0.009999999776482582, 0.013422428630292416, 0.009999999776482582, 0.009999999776482582, 0.009860286489129066, 0.013202150352299213, 0.02338757924735546, 0.001387145253829658, -0.016877051442861557, 0.005431042052805424, 0.017697585746645927, 0.009999999776482582, -0.00776642095297575, -0.002233111998066306, 0.009999999776482582, -0.008127834647893906, 0.0035544519778341055, 0.018461422994732857, 0.009999999776482582, 0.003768359078094363, 0.014566147699952126, 0.016126278787851334, 0.010293390601873398, 0.012964241206645966, 0.009759378619492054, 0.0011375128524377942, -0.010584619827568531, 0.0009298534132540226, 0.009999999776482582, 0.009999999776482582, -0.006571592763066292, 0.009999999776482582, 0.009605769999325275, 0.008017908781766891, 0.009999999776482582, 0.01390866469591856, 0.002961151534691453, 0.010125168599188328, 0.009932667016983032, 0.009999999776482582, 0.009643403813242912, 0.007025225553661585, -0.011433213949203491, 0.0013591796159744263, 0.012936048209667206, -0.002609454793855548, -0.010694063268601894, -0.0018088967772200704, 0.005043852608650923, -0.007277727127075195, 0.003223141422495246, -0.006192171014845371, -0.007737034931778908, 0.012895094230771065, 0.013725167140364647, 0.009999999776482582, -0.004628140479326248, -0.0038853781297802925, 0.014451133087277412, 0.016143225133419037, 0.00896672997623682, 0.004822831600904465, -0.008188233710825443, 0.009999999776482582, -0.0068056960590183735, 0.003769989823922515, 0.00802245270460844, 0.009999999776482582, 0.014411009848117828, 0.009993866086006165, 0.002256547100841999, 0.005590665619820356, 0.009999999776482582, 0.010959485545754433, 0.010881539434194565, 0.006323464214801788, 0.009999999776482582, -4.9112924898508936e-05, -0.0034706993028521538, -0.006295640952885151, 0.009999999776482582, -0.0003331815532874316, 0.01485437247902155, 0.0087123429402709, 0.019037960097193718, 0.009564528241753578, 0.015321603044867516, 0.03261139243841171, -0.010064888745546341, 0.009646476246416569, -0.010433369316160679, 0.011438149958848953, 0.009999999776482582, 0.005274014547467232, 0.01080040168017149, 0.007028086576610804, 0.009999999776482582, -0.0012884170282632113, 0.009999999776482582, 0.009685168974101543, 0.01134280301630497, -0.004817487206310034, -0.02252059243619442, 0.011852949857711792, 0.009999999776482582, 0.0034823669120669365, -0.0026605052407830954, 0.012848050333559513, 0.00843172799795866, -0.0030289539135992527, 0.01699698716402054, -0.004218102432787418, 0.010253102518618107, 0.011083763092756271, 0.0035881686490029097, 0.009999999776482582, 0.005105116870254278, 0.0068129547871649265]}, {"name": "act1", "type": "ReLU"}, {"name": "fc2", "type": "Linear", "weight": [[-0.07812491804361343, 0.10364888608455658, -0.1442069709300995, 0.04805148020386696, -0.060795094817876816, -0.02515980787575245, 0.004651345312595367, 0.11735659092664719, 0.09273811429738998, -0.06708720326423645, -0.11640352755784988, 0.056694597005844116, -0.11370862275362015, -0.10332100093364716, 0.04380438104271889, -0.1398634910583496, -0.07771158218383789, 0.14207586646080017, 0.04937966540455818, 0.08167309314012527, 0.09542235732078552, -0.01585543155670166, -0.05916684865951538, 0.02525484934449196, 0.11942388117313385, 0.05109480395913124, -0.13802394270896912, 0.01926453225314617, -0.005029007792472839, 0.03650249168276787, -0.1345784068107605, 0.043627966195344925, 0.05816600099205971, -0.10039833188056946, -0.045371707528829575, -0.04856995493173599, 0.1331026703119278, 0.10258376598358154, -0.027370169758796692, -0.11550986766815186, -0.04033248871564865, -0.06995145976543427, -0.0437583327293396, -0.11936777830123901, -0.13381123542785645, -0.01004826370626688, -0.12398988753557205, -0.00011116234236396849, -0.0011692594271153212, -0.08592905104160309, -0.1413854956626892, 0.03548036888241768, -0.02232346683740616, 0.05614471435546875, 0.11250025779008865, -0.005072534549981356, -0.1434313952922821, 0.06140933185815811, 0.1219196617603302, 0.11434581875801086, 0.13753439486026764, 0.09417131543159485, 0.07872353494167328, -0.09110213071107864, 0.09239612519741058, -0.14265437424182892, -0.037076905369758606, -0.08522802591323853, -0.11653637140989304, 0.12175200134515762, 0.09564299881458282, -0.09655452519655228, 0.14656536281108856, -0.1498609483242035, -0.0863259881734848, -0.058388400822877884, -0.021630587056279182, 0.12063716351985931, 0.05747716873884201, -0.05212314799427986, 0.08849774301052094, -0.008935684338212013, 0.06919823586940765, -0.1086743175983429, -0.13972820341587067, 0.08487620949745178, 0.03680339455604553, 0.0749916061758995, -0.00019459956092759967, -0.06258006393909454, 0.1387849897146225, -0.1494721621274948, -0.12315106391906738, -0.14333242177963257, -0.006114073563367128, 0.08111583441495895, 0.004520847462117672, -0.07238012552261353, -0.12765800952911377, -0.004179979674518108, -0.07962252199649811, 0.07608725875616074, -0.10086002945899963, -0.13928836584091187, 0.056465744972229004, -0.09188571572303772, 0.14899520576000214, -0.13232789933681488, 0.08919930458068848, -0.006648492068052292, -0.0193270742893219, 0.11317910999059677, -0.13098779320716858, 0.14582465589046478, -0.09572789072990417, -0.010811302810907364, 0.06796655803918839, -0.11776819825172424, 0.07895789295434952, 0.1422012746334076, 0.13786661624908447, -0.09645289927721024, -0.09041083604097366, 0.11468592286109924, 0.03298913687467575, -0.0684090107679367, -0.01596515253186226, -0.06901602447032928], [0.00016216933727264404, 0.08942462503910065, -0.08650526404380798, 0.12230183184146881, -0.07347086071968079, -0.11083464324474335, -0.0997692346572876, -0.09901192784309387, -0.010498449206352234, 0.1000077873468399, -0.07692988216876984, 0.05485808849334717, -0.025831162929534912, -0.002463817596435547, -0.1383039504289627, -0.10803677141666412, 0.0882304459810257, 0.1188095360994339, 0.026760265231132507, -0.013605594635009766, 0.03548738360404968, -0.1405172497034073, -0.1034218817949295, 0.14249031245708466, -0.05138159543275833, 0.10894842445850372, -0.0022885799407958984, -0.004144579172134399, -0.011102482676506042, 0.03329728543758392, 0.04047133028507233, 0.1469203680753708, 0.027196437120437622, -0.14812301099300385, 0.08346061408519745, -0.08151333034038544, 0.07053197920322418, 0.07785578072071075, -0.017082422971725464, -0.008420929312705994, 0.13323043286800385, -0.06648644804954529, -0.07526262104511261, 0.08293786644935608, -0.12003923952579498, 0.1251409500837326, -0.031020350754261017, -0.10024098306894302, 0.039001479744911194, -0.12062281370162964, 0.0598389208316803, -0.09841831028461456, -0.04519841820001602, 0.128367081284523, -0.07637898623943329, -0.072687529027462, 0.06201006472110748, -0.09474647045135498, -0.04105687886476517, -0.050141751766204834, -0.10069641470909119, 0.033554807305336, 0.03370772302150726, -0.014012247323989868, 0.11350609362125397, -0.14541982114315033, 0.08877415955066681, -0.025512278079986572, -0.06941795349121094, 0.09250646829605103, 0.07152724266052246, 0.09645526111125946, -0.02291804552078247, -0.04102638363838196, -0.10002154111862183, -0.1390468329191208, -0.14697898924350739, 0.12236844003200531, -0.05639225244522095, 0.06300130486488342, -0.13962675631046295, -0.06998947262763977, -0.0038332194089889526, -0.11251218616962433, 0.12477253377437592, 0.016093462705612183, -0.14849388599395752, -0.019012734293937683, 0.11650843918323517, -0.008326858282089233, -0.06520912796258926, 0.09413689374923706, -0.06558317691087723, 0.03257879614830017, -0.06814587861299515, -0.08003641664981842, -0.12640641629695892, 0.13213731348514557, 0.04001978039741516, -0.12802843749523163, 0.03169114887714386, 0.12356667220592499, 0.039971888065338135, 0.04988190531730652, 0.042438820004463196, -0.04714732617139816, -0.002191022038459778, 0.12933658063411713, -0.0014986395835876465, 0.15089552104473114, 0.05834737420082092, 0.034131720662117004, 0.06703683733940125, -0.007057756185531616, 0.011045381426811218, -0.049023404717445374, 0.04455040395259857, 0.005165457725524902, 0.09331899881362915, -0.1090811938047409, -0.060889214277267456, 0.04280489683151245, -0.1452242136001587, -0.11961489170789719, 0.10276414453983307, 0.0711393803358078, 0.04425284266471863, 0.13987766206264496], [0.05158710479736328, -0.0719282329082489, -0.11999715864658356, 0.06388330459594727, 0.11287926137447357, -0.08873855322599411, -0.0535593256354332, -0.008918210864067078, -0.11424241960048676, 0.11479635536670685, -0.12591931223869324, -0.08213581889867783, -0.09436342120170593, -0.06570839136838913, 0.006767585873603821, 0.0564989298582077, -0.06335961818695068, -0.068577840924263, 0.09357249736785889, 0.07024452090263367, -0.09784592688083649, 0.04507438838481903, -0.045941561460494995, -0.11466927081346512, -0.004139214754104614, 0.11981223523616791, 0.00890032947063446, -0.07972405105829239, -0.018751293420791626, -0.050213709473609924, 0.12097598612308502, 0.010856032371520996, -0.15058255195617676, -0.07033903151750565, -0.08178669959306717, -0.1477135270833969, 0.12392063438892365, -0.10481797158718109, -0.051305219531059265, -0.14440684020519257, -0.045476071536540985, -0.05504179745912552, -0.135468989610672, -0.05473742634057999, -0.08414769917726517, -0.051083602011203766, 0.08988521993160248, -0.04026396572589874, -0.03704456984996796, 0.0200718492269516, -0.10781242698431015, -0.13980714976787567, -0.09938399493694305, 0.05203807353973389, -0.13091428577899933, -0.1438986361026764, -0.05104228854179382, -0.012910023331642151, 0.13035427033901215, -0.14194145798683167, -0.0921829342842102, -0.15264594554901123, 0.09244780242443085, -0.0018558800220489502, -0.11542223393917084, -0.04327494651079178, -0.14842845499515533, 0.11559586226940155, 0.041762277483940125, 0.021708160638809204, 0.1184207946062088, 0.08997422456741333, -0.04795099049806595, -0.12704062461853027, 0.0003079921007156372, -0.06821221858263016, 0.14294840395450592, 0.10876323282718658, 0.07447625696659088, 0.03102216124534607, 0.011122077703475952, -0.01605302095413208, 0.09240762889385223, -0.10948534309864044, -0.08946295082569122, -0.15165989100933075, -0.010756179690361023, -0.11218970268964767, 0.09190976619720459, 0.05440323054790497, -0.09040413051843643, -0.055692270398139954, -0.004233300685882568, -0.130988210439682, 0.032804086804389954, 0.13939078152179718, -0.09219901263713837, 0.004361703991889954, -0.04006166011095047, 0.0778520256280899, -0.036306172609329224, 0.08395716547966003, -0.02528122067451477, -0.09255550801753998, 0.12509675323963165, -0.06769949942827225, -0.031206101179122925, 0.08864465355873108, -0.09270545095205307, 0.039576590061187744, 0.1119222491979599, 0.12783171236515045, 0.02064208686351776, 0.05221250653266907, -0.09833063185214996, -0.13979992270469666, -0.009109124541282654, -0.07513569295406342, -0.01323726773262024, 0.0705871433019638, -0.01329052448272705, -0.05676950514316559, -0.09721831977367401, -0.05971047282218933, 0.07315407693386078, 0.1398702710866928, -0.12887531518936157, -0.037967391312122345], [0.12790335714817047, -0.03224880248308182, -0.12712153792381287, -0.005163291003555059, -0.1204334944486618, 0.024154221639037132, 3.877691779052839e-05, 0.024093467742204666, -0.1400199681520462, 0.1148405596613884, -0.01613597571849823, -0.07493370026350021, 0.020905762910842896, -0.015322461724281311, 0.10443127155303955, 0.13750962913036346, -0.11280834674835205, 0.07418492436408997, 0.14162905514240265, 0.08231990784406662, -0.15146265923976898, -0.07423744350671768, 0.11253582686185837, -0.10910643637180328, -0.0305728018283844, 0.025553520768880844, -0.07122844457626343, -0.14567552506923676, 0.01119181513786316, 0.1133992075920105, 0.05237293988466263, 0.0776321068406105, 0.09114894270896912, 0.0481623113155365, -0.15332992374897003, -0.1126481294631958, 0.06455380469560623, 0.050829123705625534, -0.12810200452804565, -0.1190253347158432, -0.056795086711645126, -0.1391284167766571, -0.021901432424783707, 0.046594373881816864, 0.025101304054260254, 0.014093861915171146, 0.10718381404876709, 0.1397409290075302, -0.03873777762055397, -0.05809037387371063, -0.1259022206068039, 0.11738697439432144, -0.07152742147445679, 0.09811132401227951, 0.02832123264670372, 0.09495729207992554, 0.1451580822467804, -0.10720250010490417, 0.06621724367141724, 0.08531740307807922, -0.0166439488530159, -0.05862275883555412, 0.13394300639629364, 0.04138803109526634, 0.08828102797269821, -0.06920621544122696, 0.009064427576959133, -0.08325069397687912, -0.09740042686462402, -0.11267111450433731, 0.0743611603975296, -0.08943989127874374, 0.13701103627681732, -0.013815000653266907, 0.1255711019039154, 0.1517503708600998, 0.031044216826558113, -0.1382061243057251, -0.03529292345046997, 0.03402720391750336, 0.0618417002260685, 0.019389508292078972, 0.1458437591791153, -0.09752053022384644, -0.12854889035224915, 0.062150441110134125, -0.12281900644302368, -0.061904825270175934, 0.0814780741930008, -0.13072074949741364, 0.057820290327072144, 0.11908502131700516, -0.1382017433643341, 0.08599960803985596, -0.05274119973182678, 0.13231971859931946, -0.07528462260961533, -0.0713171735405922, 0.07148758322000504, 0.08311653137207031, -0.11217759549617767, -0.009200644679367542, 0.07239498198032379, 0.08736629784107208, -0.10945555567741394, -0.018147148191928864, -0.06714028120040894, 0.06692879647016525, 0.13383851945400238, -0.13076382875442505, -0.05022617429494858, -0.058705560863018036, 0.07579493522644043, -0.11412258446216583, -0.07551892846822739, 0.06976318359375, 0.016842244192957878, 0.01911221444606781, -0.01959889754652977, 0.08287398517131805, -0.13822494447231293, 0.023668168112635612, 0.06433381885290146, -0.06413716077804565, 0.040420353412628174, -0.09665563702583313, 0.07116667181253433, 0.12680543959140778], [-0.08328282088041306, -0.09226369112730026, 0.040515851229429245, -0.14929090440273285, -0.033304546028375626, -0.09342575073242188, -0.06744042783975601, 0.12453309446573257, 0.00012013532250421122, 0.1074238047003746, 0.12201444804668427, 0.06675594300031662, -0.11114709079265594, 0.08760532736778259, 0.12286178767681122, -0.09110546112060547, -0.05600939691066742, 0.09015776962041855, -0.028215032070875168, -0.11743055284023285, 0.012336725369095802, 0.029795244336128235, -0.1298559308052063, -0.14357538521289825, -0.0859871655702591, 0.09134386479854584, 0.014163227751851082, 0.1260480433702469, -0.008414313197135925, -0.07238995283842087, 0.004510856699198484, -0.06845580786466599, 0.14688733220100403, -0.10541418939828873, -0.10814027488231659, 0.09070832282304764, 0.03290412202477455, 0.026075074449181557, -0.0413278192281723, -0.12942980229854584, 0.07026924192905426, -0.09538602828979492, -0.14235833287239075, -0.09269025921821594, -0.07720644772052765, 0.11909808218479156, 0.08913120627403259, 0.12576206028461456, 0.05040287971496582, 0.11485733091831207, -0.04090793803334236, -0.04553057253360748, -0.03235642984509468, -0.07164561748504639, -0.10650858283042908, 0.11466251313686371, -0.048657942563295364, -0.10470335185527802, 0.0192717295140028, 0.046533457934856415, 0.07820270210504532, -0.11875661462545395, 0.007264185696840286, -0.039279527962207794, -0.1492624133825302, -0.015618860721588135, 0.028433235362172127, 0.10058166086673737, 0.139883354306221, -0.1212470680475235, 0.14683304727077484, 0.07412096858024597, -0.029259834438562393, -0.06129947304725647, -0.09892880171537399, 0.09442045539617538, 0.12000378966331482, 0.03623385727405548, -0.0982205718755722, -0.12246900051832199, 0.1031981110572815, -0.10575903207063675, -0.11294076591730118, -0.019405877217650414, -0.08132705837488174, 0.08482564240694046, -0.01124987006187439, 0.04963776841759682, -0.14176468551158905, 0.018763380125164986, 0.13815085589885712, 0.07474315911531448, 0.0806526243686676, 0.04810284450650215, -0.10605531930923462, -0.09724660217761993, -0.07389930635690689, 0.1327095925807953, 0.12509536743164062, 0.1406065672636032, -0.1336553394794464, -0.09675344824790955, 0.1494665890932083, -0.11271967738866806, -0.11860291659832001, 0.10032445192337036, -0.07931539416313171, -0.11698538064956665, 0.09523528814315796, -0.007152190897613764, 0.11622341722249985, 0.05334951728582382, 0.0983484759926796, -0.0876307561993599, 0.036856234073638916, -0.04639840126037598, -0.08131993561983109, 0.11877153068780899, 0.0726061537861824, 0.10927070677280426, -0.08991257846355438, -0.07427556067705154, 0.06260821968317032, 0.11740762740373611, 0.09306366741657257, 0.002041548490524292, 0.10847826302051544, 0.1501263529062271], [0.042265862226486206, -0.07070934772491455, 0.013287442736327648, -0.09243781864643097, -0.045281749218702316, 0.06423699110746384, -0.12917281687259674, -0.09471036493778229, -0.009703765623271465, 0.036700163036584854, -0.11924698948860168, -0.09782741963863373, -0.01830369234085083, 0.14838926494121552, -0.072533518075943, 0.08708570152521133, -0.007174133323132992, -0.08974272757768631, -0.07873605936765671, -0.03718763589859009, 0.014487864449620247, -0.10251087695360184, 0.08217239379882812, 0.13166069984436035, -0.03642413765192032, 0.0549161434173584, 0.051008354872465134, 0.04724130779504776, 0.12127707898616791, -0.005833067465573549, -0.0502442829310894, -0.011353794485330582, -0.002345544984564185, -0.13487721979618073, -0.1451050341129303, 0.06772322952747345, 0.1283954232931137, -0.03629156947135925, 0.09172983467578888, -0.049886904656887054, 0.06846939772367477, -0.1026579886674881, -0.1025959923863411, -0.04544924199581146, -0.07389428466558456, -0.048129308968782425, 0.11294031143188477, 0.10754241794347763, -0.09127148240804672, 0.14268390834331512, 0.1345166563987732, -0.0992046520113945, 0.061881497502326965, 0.0977286547422409, -0.01786215417087078, 0.07557530701160431, 0.0609876848757267, 0.11379534006118774, 0.08019997924566269, -0.0853373259305954, 0.059287045150995255, -0.027185671031475067, 0.041045404970645905, -0.03267592191696167, -0.03489632532000542, -0.13281548023223877, 0.10317900776863098, 0.0809369683265686, -0.02400120720267296, 0.018140308558940887, 0.06698280572891235, -0.02187742292881012, -0.15382196009159088, 0.02750331163406372, -0.1003442257642746, -0.06365185230970383, -0.14246085286140442, -0.050895482301712036, -0.06562411785125732, 0.05063685402274132, 0.10063253343105316, 0.019201042130589485, -0.03385138511657715, -0.14888311922550201, 0.09987806528806686, -0.1438668817281723, 0.14544610679149628, 0.03363358601927757, -0.13148023188114166, 0.04294091835618019, 0.12889932096004486, -0.13341794908046722, 0.14794985949993134, 0.004821718670427799, 0.14366406202316284, 0.10692325234413147, 0.1426570564508438, 0.04183084890246391, 0.0487004891037941, -0.048102039843797684, -0.09608758985996246, 0.11817958950996399, -0.10394181311130524, 0.13875065743923187, 0.038989681750535965, -0.09602344036102295, 0.0063657015562057495, 0.07915136963129044, -0.08339188247919083, -0.10103355348110199, -0.019720662385225296, -0.003820162732154131, -0.15138974785804749, -0.013273429125547409, -0.0034604668617248535, 0.002356266137212515, -0.01200020220130682, 0.007468554191291332, 0.12186750769615173, 0.10775414854288101, 0.05098487436771393, 0.1320752501487732, 0.12303084135055542, 0.06185523793101311, -0.12180645763874054, 0.1010122150182724, 0.09500273317098618, 0.08367900550365448], [0.040033504366874695, -0.1391790509223938, -0.054838888347148895, 0.14027585089206696, -0.0072302184998989105, -0.05268817022442818, -0.14484506845474243, -0.08700033277273178, 0.0008026760770007968, -0.02485056221485138, 0.08097699284553528, -0.14605264365673065, 0.02253013849258423, -0.04305539280176163, -0.15157853066921234, 0.028265826404094696, 0.11854007095098495, 0.12030559778213501, 0.10686898976564407, -0.14235983788967133, 0.1411791741847992, 0.04290257394313812, 0.08573499321937561, -0.06971584260463715, 0.09110741317272186, 0.0578237883746624, 0.14645381271839142, -0.07865244150161743, -0.08229676634073257, 0.12312930822372437, -0.05345331132411957, 0.07555244863033295, -0.1381452977657318, -0.11610215157270432, 0.003391390899196267, 0.02016475610435009, 0.07296349853277206, 0.11719667166471481, -0.042953118681907654, 0.0004659295082092285, -0.06989145278930664, 0.13465528190135956, 0.07047870010137558, -0.08151399344205856, 0.003144204616546631, 0.08050747960805893, 0.011483605951070786, -0.1316487342119217, 0.01300374511629343, -0.14745751023292542, 0.09507939219474792, 0.03878868743777275, 0.14609220623970032, -0.00855929870158434, 0.04352422058582306, -0.059697236865758896, 0.0897907242178917, 0.030219871550798416, -0.08286494016647339, 0.10605525970458984, -0.12765935063362122, 0.03171699866652489, 0.02136925980448723, 0.08053340017795563, 0.07804028689861298, -0.13183847069740295, 0.149071604013443, 0.03580315411090851, -0.022406354546546936, -0.09258352965116501, -0.042480237782001495, -0.018993541598320007, -0.007580260280519724, -0.12910196185112, 0.06875797361135483, 0.15012863278388977, 0.14750471711158752, -0.1441885083913803, -0.024948254227638245, -0.12731364369392395, -0.023806609213352203, 0.12473509460687637, -0.04905032366514206, 0.04859958589076996, 0.07510126382112503, 0.06207238882780075, -0.06590332090854645, -0.10521642118692398, -0.07285523414611816, 0.03499125316739082, 0.08902443945407867, 0.019801435992121696, -0.054484542459249496, -0.15247981250286102, -0.15011556446552277, -0.1281493604183197, -0.014218928292393684, -0.1388455331325531, -0.027449043467640877, -0.13728544116020203, 0.07233219593763351, -0.09971553832292557, -0.09393557906150818, -0.052976831793785095, 0.012711278162896633, 0.09479193389415741, -0.11377808451652527, -0.057467613369226456, 0.07962770760059357, -0.030307918787002563, -0.1126340851187706, -0.04432014375925064, 0.12881475687026978, -0.13711805641651154, -0.11815513670444489, -0.028793886303901672, 0.1311727911233902, -0.04657324030995369, 0.12053702771663666, 0.11842537671327591, -0.07613670825958252, -0.11269063502550125, -0.14359495043754578, -0.035535696893930435, -0.06439101696014404, -0.0054430365562438965, -0.0505543015897274, 0.12368306517601013], [0.022929653525352478, 0.06511528789997101, -0.01516910083591938, 0.12597952783107758, 0.07957823574542999, 0.06689713150262833, -0.02905786596238613, 0.11656633764505386, 0.132205992937088, -0.04842551797628403, -0.08509828895330429, 0.1431916505098343, -0.029607757925987244, -0.010038942098617554, -0.15247976779937744, 0.1001039445400238, 0.10193432122468948, -0.058834705501794815, -0.14638714492321014, -0.10486234724521637, -0.13416606187820435, 0.05459083616733551, -0.08706104755401611, 0.08378221094608307, 0.020887553691864014, 0.14462170004844666, -0.08779612928628922, -0.09802034497261047, -0.030639909207820892, -0.006643752101808786, 0.031066223978996277, 0.1343906670808792, -0.10522007197141647, -0.10522744059562683, -0.14227540791034698, 0.10696810483932495, 0.11235832422971725, 0.028991350904107094, -0.015782251954078674, -0.03465312719345093, -0.021093685179948807, 0.07348698377609253, -0.023932572454214096, 0.14421303570270538, -0.023666739463806152, -0.07064329832792282, -0.10886635631322861, -0.06706199795007706, 0.08935607224702835, 0.14899100363254547, 0.09231409430503845, -0.08015304803848267, -0.036963701248168945, -0.04979517683386803, 0.1092580184340477, -0.14708463847637177, 0.02936031110584736, -0.12219994515180588, 0.01305791549384594, 0.08826106786727905, -0.12671390175819397, -0.05890246853232384, -0.09365653991699219, -0.05042560026049614, 0.058379560708999634, 0.07279050350189209, -0.08931643515825272, 0.07874975353479385, 0.03419281542301178, 0.02619440294802189, 0.11903297901153564, 0.1399490386247635, 0.07175756990909576, 0.12070132791996002, -0.04828329384326935, -0.007350651081651449, 0.047914497554302216, -0.13847588002681732, -0.13153138756752014, 0.05680079385638237, 0.12872514128684998, -0.04527448117733002, 0.13160882890224457, 0.13408829271793365, -0.0289525855332613, 0.025673020631074905, 0.09383217990398407, 0.06800632923841476, 0.1055581271648407, 0.12106979638338089, -0.021322637796401978, -0.05991999804973602, -0.008673462085425854, -0.007242502644658089, 0.09048222005367279, 0.018569592386484146, 0.08862433582544327, 0.06553264707326889, -0.11456786096096039, -0.05757112056016922, -0.03221561014652252, -0.14154917001724243, -0.10449083149433136, 0.1451062560081482, 0.050996050238609314, -0.021724317222833633, 0.05993415415287018, 0.07570845633745193, 0.10148046910762787, -0.13954366743564606, 0.058881890028715134, -0.08256073296070099, 0.02947475016117096, 0.0425417460501194, -0.12263616174459457, 0.14361096918582916, -0.03362185135483742, 0.08100149035453796, -0.10476016253232956, -0.01134034339338541, -0.08310393244028091, -0.1107979416847229, 0.042480919510126114, -0.04390436410903931, -0.04888467490673065, 0.013694614171981812, 0.03016120009124279, 0.11712869256734848], [-0.1413155496120453, -0.1455380618572235, -0.046338170766830444, 0.012712318450212479, -0.03182403743267059, -0.1345255821943283, -0.07990451902151108, -0.1069524884223938, -0.03528264909982681, -0.03612503409385681, -0.09720799326896667, 0.021413570269942284, 0.06907935440540314, -0.06766880303621292, 0.022673584520816803, -0.14323583245277405, 0.1360487937927246, -0.050703246146440506, -0.10834910720586777, -0.04823780432343483, -0.09640229493379593, 0.004223093390464783, 0.022319436073303223, -0.04459620267152786, -0.1278170347213745, 0.07352906465530396, 0.052884139120578766, 0.014201562851667404, 0.12455306947231293, -0.03960578516125679, -0.011538798920810223, -0.09462697803974152, -0.15235789120197296, -0.08770760148763657, -0.0722343847155571, -0.13723967969417572, 0.11162442713975906, 0.08799659460783005, -0.06829679012298584, 0.020663484930992126, 0.11517926305532455, 0.02653166651725769, 0.09732605516910553, 0.006428297143429518, 0.07352936267852783, -0.0242460984736681, 0.13838578760623932, 0.05438540130853653, 0.05584318935871124, -0.1148083359003067, -0.00025314840604551136, 0.12699908018112183, 0.017388349398970604, -0.007626371458172798, 0.10627711564302444, -0.09217536449432373, -0.0028850347734987736, -0.02138395793735981, 0.1304699331521988, 0.0411200225353241, -0.03548232093453407, 0.14123505353927612, -0.040299251675605774, 0.10373952984809875, -0.01476053986698389, -0.04709542542695999, 0.07265020906925201, -0.07693472504615784, -0.139537513256073, -0.11713092774152756, 0.030410517007112503, 0.00291313580237329, -0.06716656684875488, -0.08915777504444122, 0.14580495655536652, -0.10166378319263458, -0.0772777870297432, 0.1237005740404129, -0.034948866814374924, -0.06588267534971237, -0.006487867329269648, 0.01820036955177784, -0.09874378144741058, 0.13500083982944489, -0.0006389780319295824, -0.03191695734858513, -0.12554636597633362, -0.043525658547878265, 0.022674335166811943, -0.06289848685264587, 0.03149385750293732, -0.011234336532652378, 0.03673527017235756, -0.09227745234966278, -0.013276461511850357, -0.0846710130572319, -0.03002074919641018, 0.14016884565353394, 0.04385058954358101, -0.03564853593707085, -0.13369111716747284, 0.029151413589715958, -0.02225644886493683, -0.04592844843864441, -0.008748473599553108, 0.12814515829086304, -0.03959878534078598, -0.03546537086367607, -0.1327296793460846, -0.018112564459443092, -0.10079748183488846, 0.020588025450706482, -0.04629236087203026, -0.15163305401802063, 0.045987218618392944, -0.05440445616841316, -0.13883322477340698, 0.12142723053693771, 0.09568033367395401, 0.1328478306531906, -0.11113020777702332, 0.025653300806879997, 0.09082496166229248, 0.0659276619553566, 0.10820166766643524, -0.05364592373371124, 0.03879094123840332, -0.13873642683029175], [0.02297516167163849, 0.14789579808712006, 0.06112569943070412, -0.034011926501989365, 0.04159913584589958, 0.14668723940849304, -0.08428474515676498, -0.018919898197054863, -0.1307668685913086, -0.04958657547831535, -0.08847401291131973, -0.1397155374288559, 0.060032919049263, -0.11752086877822876, 0.13065096735954285, -0.09094081073999405, -0.10361263155937195, -0.1260370910167694, -0.10517047345638275, -0.06558602303266525, 0.10946886241436005, -0.12608776986598969, -0.04844947159290314, -0.09897852689027786, 0.02148278057575226, -0.08054128289222717, -0.03091454692184925, 0.027783120051026344, -0.056097567081451416, 0.04785227030515671, -0.13122643530368805, 0.10646798461675644, -0.06776285171508789, 0.07830412685871124, 0.12665769457817078, -0.02707858383655548, 0.05925627797842026, -0.03487342596054077, 0.05948910117149353, -0.09296301752328873, 0.03968598693609238, 0.07369188964366913, 0.12081191688776016, 0.05097850412130356, -0.12122540920972824, 0.12003521621227264, -0.11411675810813904, -0.04274760186672211, -0.02319725789129734, -0.1416720449924469, -0.04925806447863579, -0.015169680118560791, -0.12684565782546997, 0.07611361145973206, 0.06272245198488235, -0.09970331937074661, 0.04216107726097107, 0.13089831173419952, 0.13682660460472107, 0.14910633862018585, 0.15023505687713623, -0.11332208663225174, 0.043196048587560654, 0.10405617952346802, -0.012010812759399414, -0.12891793251037598, -0.05954356864094734, -0.04690653458237648, -0.10162729769945145, 0.06579185277223587, 0.14495043456554413, -0.0908321738243103, -0.08487917482852936, 0.052707791328430176, 0.11857852339744568, 0.14172489941120148, -0.022765129804611206, -0.14719241857528687, -0.013765315525233746, -0.07753492891788483, 0.06793446093797684, -0.04763178899884224, -0.10244209319353104, 0.1387699544429779, 0.14405940473079681, -0.0827513188123703, 0.11891098320484161, -0.08735188841819763, -0.10838743299245834, -0.03992607071995735, -0.1004558578133583, -0.12163140624761581, 0.12406529486179352, 0.12192977964878082, 0.007055498193949461, -0.09332755208015442, 0.15338283777236938, -0.01769883930683136, -0.09912747889757156, -0.14771507680416107, 0.07231717556715012, -0.021160759031772614, -0.0006567835807800293, -0.01484881341457367, 0.0007282287697307765, 0.03612533211708069, 0.09802688658237457, 0.06375916302204132, 0.004778817296028137, 0.1304086446762085, 0.061010025441646576, -0.08501089364290237, -0.05787898227572441, -0.030048254877328873, 0.059161022305488586, 0.022850217297673225, 0.03938477858901024, -0.05405846983194351, 0.11262781918048859, 0.04153617471456528, -0.06440813094377518, -0.12907066941261292, 0.047626253217458725, -0.0927228108048439, -0.08012430369853973, -0.13493628799915314, 0.09958180785179138, 0.14274439215660095], [-0.0819271132349968, 0.12043596804141998, -0.07916495203971863, 0.07746727019548416, 0.02797003462910652, 0.0888785868883133, -0.10374025255441666, -0.14606408774852753, 0.1254379004240036, 0.10072215646505356, 0.13848771154880524, -0.029308779165148735, -0.1195765882730484, 0.08477011322975159, 0.1454593986272812, 0.03853147104382515, -0.14221766591072083, -0.11435046792030334, 0.07811103016138077, -0.12681454420089722, -0.0007154754130169749, -0.043879806995391846, -0.020403070375323296, 0.11087515205144882, -0.004608079791069031, -0.057577356696128845, -0.07608842849731445, -0.0043875365518033504, -0.11959005147218704, -0.0430477149784565, 0.03233925625681877, -0.02342839539051056, -0.11444912105798721, -0.14477069675922394, 0.0018633040599524975, -0.07196962833404541, 0.0460653081536293, 0.014292838983237743, -0.04227452725172043, 0.026075169444084167, 0.0874723494052887, 0.12895287573337555, 0.027607647702097893, 0.12347002327442169, 0.040893808007240295, 0.14992742240428925, -0.11721064895391464, -0.13087688386440277, 0.10734641551971436, -0.13725101947784424, -0.0006225244724191725, 0.02354337088763714, 0.15064966678619385, 0.13105924427509308, -0.10761509090662003, 0.07133253663778305, -0.150083988904953, -0.1391984522342682, -0.03038722090423107, -0.0030067884363234043, -0.003636203706264496, -0.08745335787534714, 0.14136411249637604, 0.14980892837047577, -0.007176046259701252, 0.014272227883338928, -0.05625733733177185, -0.01156611554324627, 0.009099114686250687, -0.14719966053962708, -0.04027248173952103, 0.08091145008802414, -0.06467071920633316, 0.006102725863456726, -0.024430258199572563, 0.1177893579006195, -0.1356756091117859, 0.09256093204021454, 0.045194316655397415, 0.000630602240562439, -0.04937170818448067, -0.10958414524793625, 0.12135861814022064, 0.0583072192966938, -0.15221010148525238, 0.08312998712062836, 0.0771142840385437, 0.10244065523147583, -0.06377851963043213, -0.042537763714790344, 0.02287110686302185, 0.09495063126087189, -0.06741165369749069, -0.053040988743305206, -0.11424185335636139, 0.0298148263245821, 0.0054070353507995605, 0.03786444291472435, -0.10191576182842255, 0.08764450997114182, 0.04614485800266266, 0.12161936610937119, 0.1477944403886795, 0.12823978066444397, 0.0885639637708664, -0.04887668788433075, -0.1364317536354065, -0.025849083438515663, -0.04644244909286499, -0.03146214783191681, -0.14483539760112762, 0.04468968138098717, 0.09278924763202667, 0.10458140820264816, 0.10644222795963287, -0.14283300936222076, -0.06385980546474457, 0.004160849377512932, -0.08075245469808578, 0.016540272161364555, -0.007361529860645533, 0.14125314354896545, 0.145704984664917, 0.11188629269599915, 0.1043090969324112, -0.0410725399851799, 0.13492166996002197, 0.08592326194047928], [0.030512839555740356, -0.12038278579711914, 0.11643598973751068, 0.11583557724952698, 0.08648069947957993, 0.00796887744218111, 0.060186054557561874, -0.06448487937450409, 0.13264578580856323, -0.11355236172676086, 0.05808788537979126, 0.056682243943214417, 0.07713785767555237, 0.11949585378170013, 0.12985950708389282, 0.12443341314792633, -0.13581569492816925, 0.08432164788246155, -0.045302607119083405, 0.033785440027713776, -0.006780853029340506, 0.04584874212741852, 0.14301574230194092, 0.13369306921958923, -0.11072741448879242, -0.039015769958496094, -0.021236801519989967, 0.13401637971401215, 0.08750268816947937, -0.07517308741807938, -0.10024677962064743, 0.07374091446399689, 0.07827698439359665, -0.006585841067135334, -0.14012689888477325, 0.08378089219331741, -0.1321314573287964, 0.06961352378129959, -0.07485619187355042, -0.07293109595775604, 0.02105659991502762, 0.08043566346168518, -0.1564965546131134, 0.12276756763458252, -0.021186769008636475, 0.08507490158081055, -0.07436062395572662, 0.1022278442978859, -0.013481718488037586, -0.07830937206745148, 0.1531788557767868, 0.046633120626211166, -0.02450893074274063, 0.10986685752868652, -0.08293364197015762, 0.14900852739810944, -0.06586117297410965, -0.14510707557201385, -0.0849115327000618, 0.012028898112475872, -0.0059275696985423565, -0.10867691040039062, 0.041906267404556274, -0.09549647569656372, -0.1194639652967453, -0.12078908085823059, 0.04810735955834389, 0.12547238171100616, -0.13587839901447296, -0.1394701451063156, -0.03642817214131355, 0.021755263209342957, 0.012850785627961159, -0.09987576305866241, -0.0018397709354758263, -0.06644272804260254, 0.08829832822084427, -0.1517218053340912, 0.1315537393093109, 0.04426012560725212, -0.12111654877662659, -0.04347000643610954, 0.07540708780288696, -0.004774336237460375, 0.1483803242444992, -0.06733652204275131, 0.11549298465251923, -0.029131988063454628, -0.061386339366436005, -0.12831664085388184, 0.10605461895465851, -0.11517960578203201, -0.03440093994140625, 0.14983077347278595, 0.0524422749876976, -0.08502088487148285, -0.057441920042037964, -0.09605898708105087, 0.08546661585569382, 0.034936126321554184, 0.07952754944562912, -0.022964324802160263, 0.10217328369617462, -0.001912337145768106, -0.11963053792715073, -0.03161349892616272, -0.07333524525165558, -0.03619643673300743, 0.00915980339050293, -0.033222585916519165, 0.05000655725598335, 0.04832582175731659, -0.0812346413731575, -0.1469961404800415, -0.084409199655056, 0.11855164170265198, -0.1478058099746704, -0.006680300924926996, 0.11883385479450226, 0.08373740315437317, 0.0615399070084095, 0.08655170351266861, -0.006445197854191065, 0.13509385287761688, 0.09049500524997711, -0.007605463266372681, -0.04581480845808983, 0.04735201597213745], [-0.09535093605518341, -0.06071139872074127, 0.02290196903049946, -0.04284222424030304, -0.0240806732326746, -0.08983496576547623, -0.1420762687921524, 0.15171080827713013, 0.12912507355213165, -0.07524038851261139, 0.08359773457050323, -0.03648770600557327, 0.0864170640707016, -0.14718256890773773, 0.06670699268579483, -0.10876838117837906, -0.03644552081823349, 0.030009247362613678, -0.10192862898111343, -0.02339540608227253, -0.012039565481245518, 0.13693080842494965, 0.1521397978067398, 0.10422717034816742, 0.0832444280385971, -0.10393581539392471, -0.09222565591335297, -0.07058623433113098, -0.0664016604423523, 0.11347567290067673, 0.0971052497625351, 0.08555527031421661, 0.05070480331778526, 0.0713566392660141, 0.10405661165714264, -0.09591911733150482, -0.10401812195777893, -0.09028872102499008, 0.04302901029586792, 0.03559863567352295, 0.05149234086275101, 0.12809894979000092, 0.07385537773370743, -0.022015780210494995, -0.05521835386753082, -0.0908021479845047, -0.12638479471206665, -0.022577589377760887, 0.031637731939554214, 0.05966946482658386, -0.015327000059187412, 0.030714668333530426, 0.09421151131391525, 0.04651397466659546, 0.1293276697397232, 0.018385648727416992, 0.0804465040564537, -0.12522298097610474, -0.08550015091896057, -0.1356179416179657, 0.15375792980194092, 0.07693514972925186, -0.0864066630601883, 0.023746822029352188, -0.019356301054358482, 0.13532890379428864, 0.06028854474425316, 0.14029671251773834, 0.13441145420074463, 0.14908066391944885, 0.14425309002399445, -0.13865716755390167, -0.09213960915803909, -0.09576888382434845, 0.00012219914060551673, -0.06695310026407242, -0.045828428119421005, 0.05758364498615265, -0.1254982054233551, -0.13004611432552338, 0.05857584625482559, 0.060965850949287415, -0.1157219409942627, -0.08421838283538818, -0.08513037115335464, 0.001218078308738768, 0.13188816606998444, -0.08961833268404007, 0.13913850486278534, 0.09490252286195755, 0.03157271444797516, 0.0784209817647934, 0.13273604214191437, -0.022217946127057076, -0.09482039511203766, 0.09266199916601181, 0.03499555587768555, 0.004166628234088421, -0.1329975575208664, -0.08650749921798706, 0.029045023024082184, 0.06407517939805984, -0.10223867744207382, 0.11533468961715698, -0.06180138885974884, -0.13580332696437836, 0.06129622459411621, -0.026636140421032906, -0.1314006745815277, 0.06926228106021881, 0.01761089637875557, 0.12450200319290161, -0.024911951273679733, 0.059609025716781616, -0.0542970672249794, -0.09617091715335846, 0.06726391613483429, 0.12323588132858276, 0.1398019939661026, 0.06602941453456879, -0.050641439855098724, 0.14652840793132782, -0.13758860528469086, -0.09646759927272797, 0.14489027857780457, 0.08288626372814178, -0.09703774750232697, 0.09506029635667801], [0.14527975022792816, -0.044497206807136536, 0.0034685879945755005, -0.08095049113035202, 0.02436929941177368, -0.08787374943494797, -0.03954917937517166, -0.09459851682186127, -0.1256454437971115, 0.0036529451608657837, 0.057419776916503906, -0.09519170224666595, 0.13981999456882477, 0.015213683247566223, -0.14732691645622253, -0.026085257530212402, -0.0023208558559417725, -0.12418917566537857, 0.11948315799236298, -0.14739885926246643, 0.09825412929058075, 0.004944920539855957, 0.024828046560287476, -0.050187595188617706, -0.1447220742702484, 0.10572792589664459, 0.024634182453155518, 0.014128416776657104, 0.12567003071308136, -0.07518099248409271, 0.11803586781024933, 0.005892366170883179, -0.07378421723842621, 0.12071488797664642, 0.038361191749572754, -0.135074645280838, 0.020590320229530334, 0.09765635430812836, 0.15026457607746124, -0.07144957035779953, -0.06630933284759521, -0.1347394436597824, -0.030692704021930695, 0.0028717368841171265, -0.05568564683198929, -0.015940427780151367, -0.11562062799930573, 0.02543395757675171, 0.0634431391954422, 0.14058555662631989, 0.031044960021972656, -0.002407386898994446, -0.08826933801174164, 0.11372242867946625, -0.08032586425542831, 0.12105618417263031, 0.036058053374290466, -0.019940197467803955, 0.13872896134853363, 0.07914035022258759, 0.1436624675989151, 0.13041768968105316, 0.11431081593036652, 0.14920927584171295, 0.08120766282081604, 0.007153421640396118, 0.12867926061153412, 0.0912453681230545, -0.00403083860874176, -0.004588186740875244, 0.04374992847442627, -0.13332119584083557, -0.0686398595571518, -0.12146718800067902, 0.047039225697517395, -0.12327675521373749, -0.0761844739317894, -0.10198481380939484, -0.11193007230758667, -0.009006515145301819, -0.07113721966743469, 0.057090818881988525, -0.1344040036201477, 0.03779397904872894, -0.1499112844467163, 0.13254235684871674, -0.0052095502614974976, 0.06846262514591217, 0.1269303411245346, -0.049804963171482086, 0.007614254951477051, -0.15010066330432892, 0.09769971668720245, 0.06305332481861115, -0.08079691976308823, -0.10759036242961884, -0.1507539451122284, 0.11595000326633453, -0.1386534571647644, 0.13194037973880768, 0.036730408668518066, 0.0491923987865448, -0.07847794890403748, -0.05410688370466232, -0.088287353515625, -0.04180363565683365, -0.03166421502828598, -0.0355803444981575, 0.0275392085313797, -0.02671085298061371, -0.0018432438373565674, -0.13964158296585083, -0.12690263986587524, -0.04215655475854874, -0.13472338020801544, -0.13554131984710693, -0.03458058834075928, -0.13182540237903595, -0.1298278421163559, 0.07587197422981262, -0.09581032395362854, -0.04300135374069214, 0.07541444897651672, 0.017352178692817688, 0.06819687783718109, 0.005468592047691345, 0.13747532665729523, -0.11790556460618973], [0.03251974284648895, -0.15141674876213074, 0.016668757423758507, -0.03081909380853176, -0.14019235968589783, -0.09030318260192871, -0.017952678725123405, 0.06751497089862823, 0.12153510004281998, -0.13110704720020294, 0.13907213509082794, 0.019189361482858658, -0.03134214133024216, -0.06272713094949722, 0.02060544118285179, -0.01170052494853735, -0.10066651552915573, 0.14269600808620453, 0.08818261325359344, 0.12300679087638855, 0.07937727123498917, -0.07590658217668533, -0.04461027681827545, 0.07147202640771866, -0.09758462011814117, -0.12602224946022034, -0.04030944034457207, -0.1167234554886818, -0.027366146445274353, -0.07572722434997559, 0.07542099803686142, -0.12272437661886215, 0.07371208071708679, 0.08393897116184235, 0.0050094714388251305, -0.06964103132486343, 0.13609115779399872, 0.041376639157533646, 0.05386582016944885, 0.006110981106758118, -0.03243846818804741, -0.08123137801885605, -0.1377895325422287, 0.1158372312784195, -0.12116517126560211, 0.01842644438147545, 0.10584686696529388, -0.02578006312251091, 0.1541866958141327, -0.008417472243309021, 0.11942475289106369, -0.039295051246881485, 0.11194092035293579, 0.11192517727613449, 0.13442032039165497, 0.09969769418239594, 0.12131980806589127, -0.01313096471130848, 0.0394921749830246, -0.040659938007593155, -0.012925637885928154, -0.01719958707690239, 0.07039879262447357, 0.014389530755579472, -0.008112862706184387, -0.006647765636444092, -0.12371009588241577, -0.1399758756160736, 0.03673319146037102, 0.052260491997003555, 0.03473013639450073, -0.09003069251775742, 0.11176324635744095, 0.004842594265937805, -0.052669279277324677, -0.1350526511669159, 0.012321947142481804, -0.04366903752088547, -0.03530236333608627, 0.08690164238214493, 0.07709503173828125, -0.09010469913482666, 0.1520613580942154, -0.10339722782373428, 0.06477203965187073, -0.1125798374414444, -0.030053988099098206, -0.12418462336063385, -0.007691656239330769, 0.06529774516820908, 0.039127007126808167, 0.14693179726600647, -0.09416984021663666, -0.1293901652097702, -0.07432837039232254, -0.10976304858922958, -0.009753784164786339, 0.07349023222923279, -0.023991907015442848, 0.14131607115268707, 0.10453101992607117, 0.045941248536109924, 0.0882187932729721, -0.12096501886844635, 0.049353521317243576, -0.05112256854772568, 0.13891084492206573, -0.11379220336675644, 0.10399211943149567, -0.09068919718265533, 0.06766413152217865, 0.019344819709658623, 0.0255740974098444, 0.0282876119017601, 0.14282836019992828, 0.043583475053310394, 0.08143318444490433, -0.11418158560991287, -0.09309443831443787, 0.12179875373840332, -0.12866665422916412, -0.05645820498466492, 0.033815834671258926, -0.07900052517652512, 0.09732924401760101, -0.11947473138570786, -0.0027858803514391184, 0.12199009209871292], [-0.11134205758571625, -0.08256769180297852, 0.016127517446875572, -0.047842349857091904, 0.13685117661952972, -0.14926952123641968, 0.13462422788143158, 0.10584928840398788, 0.09405908733606339, 0.061162643134593964, -0.11937138438224792, 0.018267720937728882, -0.10090464353561401, -0.03778691589832306, -0.027991337701678276, -0.027782270684838295, -0.0371972881257534, -0.06112387031316757, 0.047825369983911514, 0.0711447075009346, -0.10120680183172226, 0.0611054003238678, -0.03252578526735306, 0.07323919981718063, -0.07515525817871094, 0.02492818422615528, 0.09632430970668793, -0.11324983835220337, 0.029096126556396484, -0.07899894565343857, -0.0702347457408905, 0.1407831758260727, 0.12580066919326782, -0.10706035047769547, 0.1290174275636673, 0.08147881925106049, -0.08586674928665161, 0.059668947011232376, -0.10854996740818024, -0.10815873742103577, 0.11183113604784012, 0.031853511929512024, 0.12862879037857056, 0.03502390906214714, 0.09915454685688019, -0.13700062036514282, 0.13972793519496918, 0.155989870429039, 0.08256357908248901, 0.010301396250724792, 0.09130628407001495, -0.02296367660164833, -0.03228557109832764, -0.1098184883594513, -0.018860777840018272, -0.12504152953624725, -0.006045936606824398, 0.10561182349920273, 0.042536262422800064, 0.0405401811003685, -0.08339368551969528, -0.04737419635057449, 0.13939665257930756, -0.06255336850881577, -0.08169721066951752, -0.10053570568561554, 0.12867766618728638, 0.0060707745142281055, 0.0700850859284401, 0.13952642679214478, 0.12374339252710342, -0.05648433789610863, 0.1229390949010849, -0.08009421825408936, 0.0719248428940773, 0.15146486461162567, -0.13948772847652435, 0.1432272046804428, -0.05777798220515251, -0.06651642173528671, 0.024630103260278702, -0.05546780303120613, -0.060879871249198914, -0.09350322186946869, 0.14918360114097595, 0.1330990046262741, -0.07129548490047455, -0.012675121426582336, 0.10322490334510803, 0.09539423137903214, -0.01074671745300293, 0.07923249155282974, 0.015105430036783218, 0.001680797548033297, -0.06530441343784332, -0.07738855481147766, 0.0667433813214302, -0.03104318678379059, 0.0705297589302063, -0.1285858452320099, -0.11825307458639145, -0.12622056901454926, 0.029114827513694763, -0.11793819814920425, 0.03935236483812332, -0.09263862669467926, -0.05243507772684097, 0.04148763790726662, -0.03894826024770737, 0.0037711302284151316, 0.036649301648139954, -0.031187869608402252, -0.015366846695542336, -0.074596107006073, 0.011573493480682373, 0.009322218596935272, 0.022018378600478172, 0.0038366683293133974, -0.013873433694243431, 0.0104720713570714, 0.005948314908891916, 0.01512895803898573, -0.10087265074253082, -0.07710225135087967, -0.1459192931652069, 0.12436605989933014, 0.1565609574317932, 0.12904806435108185], [0.14388777315616608, 0.1397821456193924, 0.05963281914591789, 0.07100072503089905, 0.10563751310110092, 0.12945574522018433, 0.033727653324604034, -0.06605955958366394, -0.10860635340213776, -0.03930312767624855, -0.14726470410823822, -0.06302279233932495, -0.13636848330497742, 0.07002425193786621, -0.12908951938152313, -0.14024752378463745, 0.08826892822980881, -0.08370188623666763, -0.059412866830825806, 0.07108540087938309, -0.12706835567951202, -0.12048368901014328, -0.1334020346403122, -0.15345966815948486, -0.14734160900115967, 0.14611075818538666, -0.11958862096071243, -0.10913080722093582, 0.1266288012266159, -0.13630804419517517, 0.02513250894844532, -0.03926580026745796, 0.038538698107004166, 0.03132958710193634, -0.044986870139837265, -0.012830642983317375, 0.0021880222484469414, -0.017944414168596268, -0.06586357206106186, -0.028659313917160034, -0.06353429704904556, 0.13204391300678253, 0.12560217082500458, 0.036313146352767944, -0.019407927989959717, 0.04872235283255577, 0.041561245918273926, 0.056875601410865784, -0.14647093415260315, -0.03824247419834137, -0.05982833355665207, 0.027831802144646645, -0.10405724495649338, 0.01881156861782074, -0.10177475214004517, 0.014645209535956383, -0.012881013564765453, 0.15006157755851746, -0.1505696177482605, 0.09710144251585007, -0.10313213616609573, -0.10670679807662964, 0.13296696543693542, 0.05077199637889862, 0.08006364107131958, 0.10352025926113129, -0.04982072114944458, 0.04160801321268082, 0.08613971620798111, -0.002406055573374033, 0.012357405386865139, -0.12282813340425491, 0.12359872460365295, 0.026750952005386353, -0.02900722622871399, 0.12993697822093964, 0.0177569892257452, -0.025168538093566895, -0.08187181502580643, 0.06970418989658356, -0.052488282322883606, -0.11529198288917542, 0.13208897411823273, -0.15135924518108368, 0.0033102137967944145, -0.023566382005810738, 0.12455175817012787, -0.09373410791158676, -0.07677622884511948, 0.06180031597614288, 0.0467008501291275, 0.09577684849500656, -0.04927190765738487, -0.09011910110712051, 0.035112593322992325, 0.07491976022720337, 0.04912465065717697, -0.14633060991764069, 0.01132854726165533, 0.11154301464557648, -0.09607882052659988, 0.15277661383152008, 0.02747015655040741, -0.09053164720535278, 0.10794021934270859, 0.014219814911484718, -0.1086217612028122, 0.03563721850514412, -0.02991832047700882, 0.07626818120479584, 0.10657652467489243, -0.025296220555901527, -0.041968025267124176, -0.08915553241968155, -0.066340871155262, -0.05390181019902229, 0.10409428179264069, -0.06227555871009827, 0.03877196088433266, -0.0820963904261589, -0.1397525668144226, 0.09345532953739166, -0.03973081335425377, 0.049460019916296005, 0.111903615295887, 0.06145693361759186, 0.015235545113682747, 0.11612582951784134], [0.08759136497974396, 0.026404231786727905, -0.14076822996139526, -0.05340566486120224, 0.10096098482608795, 0.15063433349132538, -0.01603485457599163, -0.044021204113960266, 0.07752195000648499, -0.07867077738046646, 0.1282574087381363, -0.13428834080696106, 0.025497794151306152, 0.04547813534736633, -0.04124073311686516, -0.007615754846483469, 0.06373398005962372, -0.02173863910138607, 0.05115627497434616, 0.03213047981262207, 0.07119336724281311, -0.0573296919465065, 0.13578936457633972, -0.14462320506572723, 0.10494963824748993, 0.08662410825490952, -0.07009246200323105, -0.036463670432567596, 0.06816887855529785, 0.07986517995595932, 0.005108768120408058, 0.10901142656803131, 0.1217464804649353, -0.07058774679899216, -0.08614838123321533, -0.043712325394153595, 0.06488960236310959, 0.11820796132087708, 0.09002755582332611, 0.052287712693214417, 0.08802202343940735, 0.01532319188117981, -0.04536675661802292, -0.07251370698213577, 0.13919924199581146, 0.13793203234672546, -0.035292450338602066, 0.03204508125782013, -0.07441511005163193, -0.0657094195485115, 0.13807371258735657, 0.005266353487968445, -0.046417657285928726, 0.016134120523929596, 0.040261540561914444, -0.026174427941441536, 0.04313181713223457, -0.14145468175411224, 0.006829354912042618, 0.04891648143529892, -0.020461667329072952, -0.046008337289094925, -0.09991909563541412, -0.024303466081619263, -0.13656941056251526, 0.08972135186195374, 0.0632483959197998, 0.002290213480591774, -0.014186759479343891, -0.14651310443878174, 0.11048369854688644, 0.020830228924751282, 0.013122238218784332, -0.1431608647108078, -0.11454755812883377, 0.010635760612785816, -0.0024130104575306177, -0.04589109867811203, 0.011456847190856934, 0.08663222193717957, -0.14228703081607819, 0.09220535308122635, -0.12281423062086105, 0.04046735167503357, -0.07694084942340851, -0.07841066271066666, 0.1345064491033554, -0.003971477039158344, 0.15410415828227997, 0.12970735132694244, -0.1145554631948471, 0.14576813578605652, 0.0780344232916832, 0.020726528018712997, -0.04653273522853851, 0.07337867468595505, -0.10445564240217209, 0.05925465002655983, -0.10043109953403473, -0.003892996348440647, 0.027665015310049057, 0.07934174686670303, -0.07979016751050949, -0.04991873726248741, 0.06209057569503784, 0.0006829175399616361, -0.09184207022190094, -0.008476627059280872, 0.07971689105033875, -0.033305805176496506, 0.045792900025844574, 0.10828576236963272, -0.00809518899768591, -0.13398584723472595, -0.1408245861530304, -0.0689629390835762, 0.032212380319833755, -0.148329958319664, 0.10079102963209152, 0.030723273754119873, 0.08809835463762283, 0.14823715388774872, -0.0470849946141243, 0.0326048918068409, -0.020969757810235023, -0.02906419336795807, 0.1401216685771942, -0.06523077934980392], [0.047749727964401245, -0.09918776899576187, 0.10731696337461472, 0.09344499558210373, 0.08028052747249603, 0.06534289568662643, 0.10614615678787231, 0.03211004659533501, 0.10739624500274658, 0.05981484055519104, -0.0793759822845459, -0.12840355932712555, -0.003273308277130127, -0.10586608946323395, -0.13177023828029633, -0.07049386948347092, -0.09484919905662537, 0.14550136029720306, 0.020864635705947876, 0.08761677891016006, -0.1253688782453537, -0.076416015625, 0.00829703826457262, -0.04744100943207741, -0.08560040593147278, -0.07235866785049438, -0.09600658714771271, 0.08441515266895294, -0.09884978830814362, -0.034285735338926315, -0.11911462247371674, 0.10917586833238602, 0.035156846046447754, -0.12657122313976288, 0.1481388360261917, 0.09987709671258926, 0.09957697987556458, 0.024758320301771164, 0.024714156985282898, 0.046332404017448425, -0.08528386056423187, -0.018555358052253723, 0.10415920615196228, -0.12541775405406952, 0.06798437237739563, 0.1221935898065567, -0.05279909819364548, 0.14350251853466034, 0.08524385839700699, -0.06425493955612183, 0.05486245080828667, -0.0751112625002861, 0.05450257658958435, 0.06710359454154968, -0.017494400963187218, -0.09987665712833405, 0.023206686601042747, 0.08151049166917801, 0.050112754106521606, -0.10986483842134476, -0.058712393045425415, 0.11161785572767258, 0.016020316630601883, 0.14650513231754303, 0.11580485850572586, -0.10833065956830978, -0.040896572172641754, -0.022247258573770523, -0.06690093129873276, -0.09244751185178757, 0.15007655322551727, -0.11314265429973602, -0.11721708625555038, 0.09609250724315643, -0.104049913585186, 0.10510583221912384, 0.05358674377202988, 0.09612864255905151, 0.034583356231451035, 0.09628753364086151, -0.13746896386146545, 0.05876491963863373, 0.1138240247964859, 0.09764610230922699, -0.09603898227214813, -0.039359524846076965, -0.14760105311870575, 0.08527521789073944, -0.10706108063459396, 0.09852652251720428, 0.04730407893657684, -0.013483748771250248, -0.14015696942806244, 0.07539156079292297, 0.1313447207212448, -0.032071009278297424, 0.0018363131675869226, -0.1340513378381729, 0.06167345494031906, 0.07485878467559814, 0.10244269669055939, 0.07121393084526062, 0.12574128806591034, 0.10461150854825974, 0.00126924819778651, 0.05388900637626648, 0.003967553377151489, -0.029986346140503883, -0.10090482980012894, 0.04273505508899689, 0.07871947437524796, -0.08716791868209839, -0.038285672664642334, -0.000303119421005249, 0.12067703902721405, -0.0044915322214365005, -0.057786159217357635, 0.06424747407436371, -0.024817055091261864, -0.12497644871473312, -0.15006054937839508, 0.01759990118443966, 0.10511838644742966, -0.11875314265489578, -0.14638875424861908, -0.056019388139247894, 0.1375657320022583, 0.10583318769931793], [-0.1249067485332489, -0.019535481929779053, 0.1261468082666397, 0.14201630651950836, -0.019713610410690308, 0.11183859407901764, -0.14499768614768982, 0.08615359663963318, -0.09850391745567322, 0.0512717068195343, 0.08903460204601288, -0.05398695915937424, -0.09412310272455215, -0.10307082533836365, -0.007519721984863281, 0.005348265171051025, -0.012546882033348083, 0.09920330345630646, -0.03214286267757416, 0.05069832503795624, 0.043569356203079224, 0.11602716147899628, 0.09117835760116577, -0.030794449150562286, 0.009305328130722046, 0.032012030482292175, -0.08902627974748611, -0.04858499765396118, -0.01492956280708313, 0.13104145228862762, 0.13958369195461273, 0.057937800884246826, -0.12544547021389008, -0.08180157095193863, -0.07221173495054245, -0.08109614998102188, -0.07648991048336029, -0.004483014345169067, 0.06281626224517822, -0.13392068445682526, 0.020477518439292908, -0.08097084611654282, -0.13863535225391388, 0.0278204083442688, 0.1457366794347763, -0.14592842757701874, -0.07829548418521881, -0.0007901191711425781, -0.10897509008646011, 0.1322508305311203, 0.056918710470199585, -0.057969190180301666, 0.09917180240154266, -0.10424108058214188, -0.12150052934885025, 0.07544249296188354, 0.017050638794898987, -0.12242615967988968, -0.12898379564285278, 0.0719306617975235, 0.004064500331878662, -0.021674051880836487, -0.10143302381038666, 0.10157103836536407, -0.11523503065109253, 0.0572962611913681, 0.07029616832733154, 0.12515689432621002, -0.0032625794410705566, -0.15057167410850525, -0.1317618042230606, -0.12608405947685242, -0.09271842241287231, -0.13549676537513733, -0.14699122309684753, -0.10612963885068893, -0.09290541708469391, 0.12785659730434418, -0.01892252266407013, 0.10458476841449738, 0.10949258506298065, 0.11888034641742706, 0.027695640921592712, -0.12499865889549255, -0.05224885791540146, -0.07522789388895035, 0.02320834994316101, 0.1336740404367447, 0.1365736871957779, 0.11041583120822906, 0.10402266681194305, -0.13713419437408447, -0.13509562611579895, 0.010100901126861572, -0.039579056203365326, 0.14863990247249603, 0.10310511291027069, 0.006420359015464783, -0.008527547121047974, -0.018517374992370605, -0.007136210799217224, 0.09163406491279602, -0.0364556610584259, -0.06170382350683212, 0.06752070784568787, -0.14046359062194824, 0.03114268183708191, 0.14590470492839813, -0.12080651521682739, 0.07258661091327667, 0.10464860498905182, -0.1195540800690651, 0.1103268414735794, -0.01715625822544098, 0.013368472456932068, 0.10990040004253387, -0.08013802021741867, 0.1323428601026535, 0.10628826916217804, 0.0939706414937973, -0.15132419764995575, 0.07360932230949402, 0.11195053160190582, -0.13989964127540588, -0.08094003796577454, -0.047236353158950806, 0.14875878393650055, 0.061737775802612305], [0.04735758900642395, -0.09569883346557617, 0.06800438463687897, -0.021217158064246178, 0.0689394474029541, -0.1334628313779831, -0.004512569401413202, 0.058918535709381104, -0.07903888821601868, -0.10532062500715256, 0.10471577942371368, -0.035407595336437225, -0.035631902515888214, 0.09684883058071136, 0.1444741040468216, 0.14871831238269806, 0.13426868617534637, -0.07694297283887863, 0.1086687296628952, 0.0323343425989151, -0.06897354871034622, -0.09471972286701202, -0.0468137152493, 0.08737368881702423, -0.00493757426738739, 0.10135262459516525, -0.119684599339962, 0.00552906421944499, -0.12207869440317154, 0.13805611431598663, 0.11233261972665787, 0.13072465360164642, 0.1354280561208725, -0.042842376977205276, -0.09230929613113403, 0.025909366086125374, 0.10349224507808685, 0.13178469240665436, -0.13266777992248535, -0.04310852289199829, 0.1395997852087021, 0.010536253452301025, -0.027196595445275307, 0.035605691373348236, 0.14892660081386566, 0.0744779109954834, 0.04978614300489426, 0.05500184744596481, 0.15703274309635162, -0.05997006595134735, -0.11759119480848312, -0.12582769989967346, 0.10171861201524734, -0.025965075939893723, 0.059956736862659454, -0.05060852691531181, -0.08380589634180069, -0.08042393624782562, -0.03364229574799538, -0.09406809508800507, -0.058765243738889694, 0.01563330367207527, -0.013299422338604927, -0.058035336434841156, 0.0005440477980300784, 0.09234325587749481, 0.034183286130428314, -0.02404419332742691, -0.035861823707818985, 0.03013687953352928, 0.05598354712128639, -0.137677863240242, 0.13505584001541138, 0.0016241371631622314, -0.036340754479169846, -0.12197912484407425, -0.0748431459069252, 0.10708604753017426, -0.13366061449050903, 0.009285579435527325, 0.057840052992105484, 0.14759136736392975, 0.07527273893356323, -0.04912528023123741, -0.12075641006231308, -0.13153672218322754, -0.05719142407178879, -0.1339472085237503, 0.14992950856685638, 0.09922569990158081, -0.05860351026058197, 0.009806717745959759, 0.14201098680496216, 0.12811754643917084, -0.008784357458353043, -0.06298461556434631, -0.024090202525258064, 0.08535150438547134, -0.03299107775092125, 0.04301808401942253, -0.03818853199481964, 0.04266665130853653, 0.002851739525794983, 0.012004981748759747, 0.07951090484857559, -0.10155694931745529, 0.01645722985267639, 0.11805763840675354, 0.04061560332775116, 0.03117522969841957, 0.12885519862174988, -0.1481182724237442, -0.044671837240457535, 0.03740702196955681, 0.0786106288433075, 0.13983765244483948, -0.08203919976949692, -0.13429208099842072, 0.14680106937885284, -0.1208886057138443, -0.04358207434415817, 0.042932141572237015, 0.013583045452833176, 0.09710577130317688, -0.12167146801948547, 0.06566454470157623, 0.11831502616405487, 0.15137535333633423], [-0.11961022019386292, 0.1074274331331253, -0.09243722259998322, -0.1364620327949524, -0.13119728863239288, 0.12502600252628326, -0.08169382065534592, -0.03016086481511593, 0.1475796103477478, -0.10262274742126465, -0.11952999234199524, -0.045859213918447495, 0.14769436419010162, -0.015036478638648987, 0.11577179282903671, 0.06270795315504074, -0.12209436297416687, 0.12209198623895645, -0.12925276160240173, 0.08771682530641556, 0.14211231470108032, -0.0008835494518280029, 0.04564587026834488, -0.027254920452833176, 0.08809556066989899, -0.14003954827785492, 0.0003623882948886603, -0.11332447081804276, 0.12880881130695343, -0.07234907150268555, -0.06981212645769119, -0.13375426828861237, -0.031649962067604065, 0.061253853142261505, 0.10796075314283371, -0.0713605210185051, 0.15177422761917114, 0.035443905740976334, 0.07974888384342194, 0.0006061643362045288, 0.02728933095932007, -0.09250175952911377, 0.06942403316497803, 0.08300474286079407, -0.021835416555404663, -0.09572925418615341, 0.03891010582447052, 0.10138458013534546, -0.0730174332857132, -0.016423538327217102, -0.036871299147605896, -0.04443749412894249, -0.13312330842018127, -0.01116474810987711, -0.018023597076535225, -0.0683339461684227, 0.0003083098854403943, 0.07257421314716339, -0.04859062284231186, -0.03287279233336449, 0.12996092438697815, -0.1070791482925415, -0.06167164444923401, -0.03096441924571991, 0.03777279332280159, -0.03837442398071289, -0.10299379378557205, 0.012749413028359413, -0.02928030490875244, 0.09044305235147476, 0.0674116387963295, 0.03372032940387726, 0.01313660480082035, 0.1445198506116867, -0.13971452414989471, -0.06678974628448486, -0.04437992349267006, 0.003995656967163086, -0.07895693182945251, -0.027252545580267906, 0.05249408632516861, -0.051265329122543335, -0.06947124004364014, 0.1468541920185089, 0.007635802961885929, -0.028470197692513466, 0.1028905063867569, -0.088493213057518, 0.06996085494756699, -0.13393524289131165, 0.11633212864398956, 0.0988548994064331, -0.06623177230358124, 0.08989958465099335, -0.08559661358594894, 0.140821635723114, -0.00492218229919672, 0.06763969361782074, 0.15256716310977936, 0.1459817737340927, 0.055324602872133255, 0.14236654341220856, 0.08389337360858917, 0.12159259617328644, 0.0751635953783989, 0.12990453839302063, 0.14699797332286835, -0.02347717061638832, 0.09291821718215942, -0.1377229392528534, 0.0014084879076108336, -0.12845300137996674, -0.0531044602394104, 0.10400190949440002, 0.0885072648525238, -0.03561415895819664, 0.019314132630825043, -0.13844755291938782, 0.07579797506332397, 0.045629795640707016, 0.006535698194056749, -0.06218811497092247, -0.012301521375775337, 0.13676466047763824, -0.1262785941362381, 0.1168292909860611, -0.035235997289419174, -0.04835570976138115], [-0.03599446266889572, 0.05756765604019165, -0.04244660958647728, 0.05461769923567772, -0.07280988246202469, -0.10191772878170013, -0.10691238194704056, -0.07217472046613693, 0.0683523491024971, -0.02963552623987198, 0.14166028797626495, -0.009406273253262043, 0.09598253667354584, -0.011920556426048279, 0.05136067047715187, 0.11586666852235794, 0.049440376460552216, -0.10801897197961807, 0.06986185908317566, 0.1461755931377411, 0.0811450406908989, 0.017980188131332397, 0.051375433802604675, 0.06764940917491913, -0.07545408606529236, 0.0799521878361702, -0.06353209912776947, 0.12263097614049911, 0.06948496401309967, 0.032151851803064346, 0.06128638982772827, -0.01750546135008335, 0.09772738069295883, -0.06779222190380096, 0.12015601247549057, 0.043630361557006836, 0.0061275246553123, 0.020686514675617218, 0.11832596361637115, -0.11744736135005951, -0.07697414606809616, -0.08940307796001434, 0.1391339898109436, -0.057861194014549255, 0.03610558807849884, 0.09459634870290756, -0.07616686820983887, 0.03765152394771576, 0.06082667037844658, 0.08539974689483643, -0.13029374182224274, -0.07215911149978638, -0.003504605730995536, -0.15170036256313324, 0.12273982912302017, 0.06777755171060562, -0.0744258239865303, -0.06722119450569153, -0.0016605796990916133, 0.0112661337479949, 0.039423465728759766, 0.03630612790584564, -0.1308598816394806, 0.03931014984846115, 0.10681958496570587, 0.08862029016017914, 0.011510729789733887, -0.023427516222000122, 0.0891767367720604, 0.028346111997961998, -0.11127277463674545, -0.04494381695985794, -0.024908913299441338, -0.048953667283058167, -0.09832525253295898, 0.09404657036066055, 0.00260138395242393, 0.01275382936000824, -0.03482701629400253, -0.012432207353413105, -0.05707459896802902, 0.08182821422815323, 0.06906981766223907, -0.1194102019071579, 0.04723174870014191, 0.011897452175617218, -0.071143738925457, -0.0024871244095265865, 0.0424848273396492, -0.1248423159122467, -0.08352962136268616, 0.03174585476517677, 0.08568114042282104, 0.10376295447349548, 0.06983023136854172, -0.05742407962679863, 0.043424006551504135, -0.10411782562732697, 0.03877032548189163, -0.06720566749572754, 0.0058284648694098, -0.03984127938747406, 0.13188739120960236, 0.07667327672243118, 0.0031512421555817127, 0.10778782516717911, -0.08512579649686813, -0.049554966390132904, 0.04273375868797302, 0.10310887545347214, 0.12991032004356384, 0.13464418053627014, 0.117185078561306, 0.05500941351056099, -0.15093876421451569, -0.15658646821975708, 0.04251931235194206, 0.032006509602069855, -0.03800928592681885, -0.004215036518871784, -0.12686100602149963, -0.018289295956492424, -0.11720219999551773, -0.04375495761632919, -0.08031978458166122, 0.10163696110248566, -0.09550328552722931, 0.04949067533016205], [0.06542815268039703, -0.08759414404630661, 0.1520528644323349, 0.14896735548973083, 0.056479912251234055, 0.03859587013721466, -0.0558207668364048, 0.10729905217885971, -0.14988429844379425, 0.05484892800450325, -0.06139305979013443, 0.13574716448783875, -0.010747566819190979, -0.1462407410144806, -0.13888445496559143, -0.14054064452648163, -0.09990420937538147, 0.08587128669023514, 0.006839211564511061, 0.08504348248243332, -0.1363823115825653, -0.03830958157777786, 0.006275631953030825, -0.11783473938703537, 0.014280468225479126, -0.12573185563087463, -0.097895048558712, 0.09331142157316208, 0.09938500821590424, -0.1561203896999359, -0.05126381292939186, 0.12505534291267395, 0.14850595593452454, -0.10617917776107788, 0.030523838475346565, -0.07957113534212112, -0.004458344075828791, 0.05523376911878586, -0.12427544593811035, -0.02435128390789032, -0.002269408432766795, 0.09058132767677307, -0.07580257952213287, -0.021630046889185905, 0.03540244698524475, 0.026508448645472527, 0.1483934074640274, 0.09068027138710022, -0.1503503918647766, -0.04623691737651825, 0.1292395442724228, 0.03634582832455635, 0.08821416646242142, -0.06967830657958984, 0.07955458015203476, 0.11038994789123535, -0.09043630957603455, -0.029259270057082176, -0.1428450495004654, -0.13820160925388336, -0.00841783918440342, -0.08763416111469269, 0.05650869756937027, 0.038434091955423355, 0.0835890844464302, 0.1475355476140976, 0.09986098110675812, -0.035733435302972794, -0.10558002442121506, 0.1413777768611908, 0.13657619059085846, -0.10060474276542664, -0.1444261074066162, -0.017208203673362732, -0.13684599101543427, 0.1372871696949005, -0.0318889357149601, -0.11015377193689346, 0.08247649669647217, 0.12467844784259796, 0.027462515980005264, 0.0938364788889885, 0.1399260014295578, 0.020347241312265396, -0.00924388226121664, 0.031432703137397766, 0.13702644407749176, 0.07812171429395676, -0.09192561358213425, -0.1495128571987152, -0.10112366825342178, 0.10004664957523346, 0.09076453745365143, -0.053957778960466385, 0.05418723076581955, 0.110832579433918, -0.03548707813024521, 0.021372374147176743, -0.1257488876581192, 0.10989102721214294, 0.1245981976389885, -0.060320738703012466, -0.09818647801876068, -0.10731378942728043, -0.12609776854515076, -0.10738444328308105, 0.04136742651462555, 0.027117105200886726, -0.018958643078804016, 0.14642347395420074, -0.04257842153310776, 0.14579267799854279, -0.004715219605714083, -0.11175128817558289, 0.09065501391887665, 0.11727248132228851, -0.09829018265008926, 0.10612525790929794, -0.07869376987218857, -0.13825048506259918, 0.1311631202697754, -0.08107078075408936, -0.032854631543159485, -0.07525386661291122, -0.1265307366847992, -0.008666977286338806, -0.05217345058917999, 0.02565663494169712], [0.10270832479000092, -0.01357792317867279, 0.1025291234254837, 0.10579247772693634, -0.11331847310066223, 0.07920306921005249, -0.11275788396596909, 0.0013802051544189453, -0.1477818340063095, -0.05407650023698807, -0.07494830340147018, 0.1418655961751938, 0.06228893995285034, 0.13915424048900604, 0.030998364090919495, 0.05086177587509155, 0.05097764730453491, -0.07892130315303802, 0.14393062889575958, -0.09260060638189316, -0.12317435443401337, 0.11135531961917877, -0.04572694003582001, 0.0009805560111999512, -0.13506266474723816, -0.11217579245567322, 0.09743116796016693, -0.13655976951122284, 0.009364396333694458, -0.028315231204032898, 0.07021589577198029, -0.030165717005729675, 0.014041632413864136, 0.030267030000686646, 0.02959194779396057, 0.09088195860385895, -0.06609148532152176, -0.01724463701248169, -0.005315542221069336, -0.12960021197795868, -0.11848661303520203, -0.06012707203626633, -0.06313945353031158, -0.06595774739980698, 0.03651346266269684, 0.04475219547748566, 0.09342613816261292, 0.12115414440631866, 0.04283235967159271, 0.020491331815719604, 0.056937962770462036, -0.0712551549077034, 0.125226691365242, 0.13045431673526764, 0.14119596779346466, -0.11213232576847076, 0.11482720077037811, -0.06584630906581879, -0.06661096960306168, -0.07050658762454987, -0.026675477623939514, -0.1432599276304245, -0.13677747547626495, -0.07136406749486923, 0.0017980635166168213, -0.09528001397848129, -0.07178886234760284, 0.0691516250371933, -0.014899343252182007, -0.10994270443916321, -0.05610576272010803, 0.14225740730762482, -0.12426029145717621, -0.06163613498210907, -0.09667972475290298, 0.1424410194158554, 0.004782319068908691, -0.11371796578168869, -0.1380208432674408, -0.04855182021856308, -0.06879620254039764, -0.09897701442241669, 0.08163098990917206, -0.13576345145702362, 0.08202141523361206, 0.12776903808116913, -0.11748786270618439, 0.05488775670528412, -0.038535989820957184, -0.05306520313024521, 0.140795037150383, -0.06180104613304138, -0.10611158609390259, -0.03173743933439255, 0.10952739417552948, 0.10111670196056366, -0.056124381721019745, -0.04420239478349686, 0.046619608998298645, 0.14136694371700287, 0.11803196370601654, 0.08368740975856781, 0.06597664952278137, -0.03983156383037567, 0.007353723049163818, -0.08349921554327011, -0.13440190255641937, -0.10344938933849335, 0.13409669697284698, 0.09270492196083069, 0.024407431483268738, -0.02589733898639679, 0.005418106913566589, -0.03791572153568268, 0.03377676010131836, -0.08886179327964783, 0.10659490525722504, 0.046460941433906555, -0.032793425023555756, 0.12439154088497162, -0.08124414086341858, 0.11040188372135162, 0.10506026446819305, -0.0937800407409668, -0.1160772517323494, -0.09645262360572815, -0.12355664372444153, -0.10828651487827301], [-0.016161665320396423, 0.0836493968963623, 0.039001092314720154, 